,i,type,prob,0,1,2,3,4,5,6,7,8,9,10,11,12,13,14,15,16,17,18,19,20,21,22,23,24,25,26,27,28,29,30,31,32,33,34,35,36,37,38,39,40,41,42,43,44,45,46,47,48,49,50,51,52,53,54,55,56,57,58,59
0,0.0,0.0,0.1666770306769995,-6.236979166666671,-6.8125,-6.88671875,-9.750000000000014,-12.93359375,-8.9765625,-11.209635416666655,-14.5625,-11.96484375,-9.4921875,-12.516927083333329,-9.28125,-8.34375,-10.28125,-10.068749999999994,-11.203125,-6.140625,-7.75,-8.0625,-12.015625,-14.625,-11.78125,-15.5,-10.921875,-13.078125,-12.068181818181811,-15.828125,-15.140625,-16.25,-20.386363636363622,-21.767045454545467,-26.34375,-11.984375,-26.09375,-36.28125,-32.5,-27.71875,-33.53125,-42.21875,-46.5625,-20.25,-14.40625,-15.859375,-21.306818181818187,-21.328125,-30.453125,-21.21875,-26.640625,-44.125,-29.375,-41.421875,-35.640625,-22.96875,-25.625,-31.953125,-35.875,-27.828125,-35.984375,-43.828125,-36.71875
1,0.0,1.0,0.6701561552353318,0.8206676136363612,-1.5764772727272713,-0.8039914772727286,-0.6450000000000145,-1.4450994318181771,-0.1707954545454541,-2.25386363636363,-3.286931818181813,-2.04349431818182,-0.007244318181818699,-5.426249999999998,-2.049545454545455,-2.656022727272726,-3.096988636363636,-2.8452272727272727,-2.365056818181819,-0.33835227272727336,-1.0198295454545458,-1.8328977272727272,-2.4450000000000003,-2.8065340909090906,-2.5382386363636384,-3.876988636363637,-2.3510795454545472,-4.330909090909091,-4.28931818181818,-5.918181818181819,-5.08568181818182,-2.9819318181818177,-6.1036363636363635,-4.031079545454546,-1.4497159090909093,-2.598238636363638,-1.1287500000000024,1.878068181818179,-2.8297159090909076,-3.724431818181819,2.289715909090904,1.9539204545454538,2.597727272727275,3.579204545454542,3.170625000000001,3.2411931818181814,0.4286931818181813,1.1457954545454583,-4.074715909090907,-2.290568181818179,2.3331818181818162,-0.7996022727272759,4.691079545454545,-4.07318181818182,-7.033125000000001,-1.9984090909090924,-0.9959659090909042,2.1792613636363627,-0.7525568181818187,-3.873920454545458,-1.1134090909090957,-8.706647727272724,-8.129147727272727
2,0.0,2.0,0.16316681408766875,4.794270833333329,3.0,2.7741477272727195,7.749999999999986,6.669270833333329,6.171875,7.118489583333343,9.083333333333345,5.0625,8.2265625,1.6861979166666714,5.84375,3.8125,6.21875,7.5,5.234375,9.609375,10.8125,6.953125,11.046875,5.328125,7.15625,9.25,10.46875,12.0625,7.875,10.984375,10.171875,31.0,23.65625,29.015625,29.15625,6.698863636363626,31.6875,26.587499999999977,13.625,18.96875,33.375,29.109375,28.4375,41.07954545454544,37.875,23.71875,27.921875,41.921875,24.9375,11.59375,30.359375,24.125,36.890625,29.109375,18.921875,19.33125000000001,25.6875,41.0625,28.25,20.26704545454544,33.203125,14.539772727272748,19.039772727272748
3,1.0,0.0,0.1659654600110584,-11.328125,-10.872395833333329,-8.0625,-14.614583333333345,-8.622395833333329,-13.3984375,-12.7109375,-10.34375,-10.93359375,-12.955729166666655,-9.2421875,-8.34375,-10.28125,-10.068749999999994,-11.203125,-6.140625,-7.75,-8.0625,-12.015625,-14.625,-11.78125,-15.5,-10.921875,-13.078125,-12.068181818181811,-15.828125,-15.140625,-16.25,-20.386363636363622,-21.767045454545467,-26.34375,-11.984375,-26.09375,-36.28125,-32.5,-27.71875,-33.53125,-42.21875,-46.5625,-20.25,-14.40625,-15.859375,-21.306818181818187,-21.328125,-30.453125,-21.21875,-26.640625,-44.125,-29.375,-41.421875,-35.640625,-22.96875,-25.625,-31.953125,-35.875,-27.828125,-35.984375,-43.828125,-36.71875,-40.796875
4,1.0,1.0,0.670165882313651,-2.4476136363636356,-1.5484943181818154,-1.2993750000000006,-2.0298295454545565,-0.5267045454545425,-2.547954545454546,-3.5721590909090963,-2.1497727272727216,-0.37589488636363483,-5.384659090909087,-2.066249999999994,-2.656022727272726,-3.096988636363636,-2.8452272727272727,-2.365056818181819,-0.33835227272727336,-1.0198295454545458,-1.8328977272727272,-2.4450000000000003,-2.8065340909090906,-2.5382386363636384,-3.876988636363637,-2.3510795454545472,-4.330909090909091,-4.28931818181818,-5.918181818181819,-5.08568181818182,-2.9819318181818177,-6.1036363636363635,-4.031079545454546,-1.4497159090909093,-2.598238636363638,-1.1287500000000024,1.878068181818179,-2.8297159090909076,-3.724431818181819,2.289715909090904,1.9539204545454538,2.597727272727275,3.579204545454542,3.170625000000001,3.2411931818181814,0.4286931818181813,1.1457954545454583,-4.074715909090907,-2.290568181818179,2.3331818181818162,-0.7996022727272759,4.691079545454545,-4.07318181818182,-7.033125000000001,-1.9984090909090924,-0.9959659090909042,2.1792613636363627,-0.7525568181818187,-3.873920454545458,-1.1134090909090957,-8.706647727272724,-8.129147727272727,-4.2581250000000015
5,1.0,2.0,0.16386865767529063,8.5625,3.783854166666672,6.140625,5.322916666666657,5.221354166666671,7.3203125,9.057291666666655,5.020833333333343,7.58203125,1.5130208333333286,5.341145833333343,3.8125,6.21875,7.5,5.234375,9.609375,10.8125,6.953125,11.046875,5.328125,7.15625,9.25,10.46875,12.0625,7.875,10.984375,10.171875,31.0,23.65625,29.015625,29.15625,6.698863636363626,31.6875,26.587499999999977,13.625,18.96875,33.375,29.109375,28.4375,41.07954545454544,37.875,23.71875,27.921875,41.921875,24.9375,11.59375,30.359375,24.125,36.890625,29.109375,18.921875,19.33125000000001,25.6875,41.0625,28.25,20.26704545454544,33.203125,14.539772727272748,19.039772727272748,26.0625
6,2.0,0.0,0.16427678979466734,-3.936197916666672,-11.875,-11.05078125,-7.171875000000014,-6.84375,-13.359375,-10.67578125,-7.65625,-10.67578125,-8.484375,-7.8359375,-10.28125,-10.068749999999994,-11.203125,-6.140625,-7.75,-8.0625,-12.015625,-14.625,-11.78125,-15.5,-10.921875,-13.078125,-12.068181818181811,-15.828125,-15.140625,-16.25,-20.386363636363622,-21.767045454545467,-26.34375,-11.984375,-26.09375,-36.28125,-32.5,-27.71875,-33.53125,-42.21875,-46.5625,-20.25,-14.40625,-15.859375,-21.306818181818187,-21.328125,-30.453125,-21.21875,-26.640625,-44.125,-29.375,-41.421875,-35.640625,-22.96875,-25.625,-31.953125,-35.875,-27.828125,-35.984375,-43.828125,-36.71875,-40.796875,-34.21875
7,2.0,1.0,0.6648443335144915,0.7351278409090881,0.7837500000000006,-0.16768465909090935,1.273636363636348,-0.9764204545454518,-2.2823863636363626,-0.9716761363636437,0.24920454545454626,-4.639943181818182,-1.6704545454545525,-2.2956249999999954,-3.096988636363636,-2.8452272727272727,-2.365056818181819,-0.33835227272727336,-1.0198295454545458,-1.8328977272727272,-2.4450000000000003,-2.8065340909090906,-2.5382386363636384,-3.876988636363637,-2.3510795454545472,-4.330909090909091,-4.28931818181818,-5.918181818181819,-5.08568181818182,-2.9819318181818177,-6.1036363636363635,-4.031079545454546,-1.4497159090909093,-2.598238636363638,-1.1287500000000024,1.878068181818179,-2.8297159090909076,-3.724431818181819,2.289715909090904,1.9539204545454538,2.597727272727275,3.579204545454542,3.170625000000001,3.2411931818181814,0.4286931818181813,1.1457954545454583,-4.074715909090907,-2.290568181818179,2.3331818181818162,-0.7996022727272759,4.691079545454545,-4.07318181818182,-7.033125000000001,-1.9984090909090924,-0.9959659090909042,2.1792613636363627,-0.7525568181818187,-3.873920454545458,-1.1134090909090957,-8.706647727272724,-8.129147727272727,-4.2581250000000015,-5.514034090909092
8,2.0,2.0,0.17087887669084112,5.1122159090909065,6.400000000000006,6.2890625,6.864583333333314,8.834635416666671,10.1875,5.979166666666657,7.78125,2.02734375,5.369791666666657,3.4479166666666714,6.21875,7.5,5.234375,9.609375,10.8125,6.953125,11.046875,5.328125,7.15625,9.25,10.46875,12.0625,7.875,10.984375,10.171875,31.0,23.65625,29.015625,29.15625,6.698863636363626,31.6875,26.587499999999977,13.625,18.96875,33.375,29.109375,28.4375,41.07954545454544,37.875,23.71875,27.921875,41.921875,24.9375,11.59375,30.359375,24.125,36.890625,29.109375,18.921875,19.33125000000001,25.6875,41.0625,28.25,20.26704545454544,33.203125,14.539772727272748,19.039772727272748,26.0625,15.340909090909063
9,3.0,0.0,0.1621803394410148,-8.359375,-10.41477272727272,-4.58203125,-6.057291666666686,-11.3671875,-8.7890625,-7.44140625,-9.46875,-7.9921875,-6.796875,-9.440104166666655,-10.068749999999994,-11.203125,-6.140625,-7.75,-8.0625,-12.015625,-14.625,-11.78125,-15.5,-10.921875,-13.078125,-12.068181818181811,-15.828125,-15.140625,-16.25,-20.386363636363622,-21.767045454545467,-26.34375,-11.984375,-26.09375,-36.28125,-32.5,-27.71875,-33.53125,-42.21875,-46.5625,-20.25,-14.40625,-15.859375,-21.306818181818187,-21.328125,-30.453125,-21.21875,-26.640625,-44.125,-29.375,-41.421875,-35.640625,-22.96875,-25.625,-31.953125,-35.875,-27.828125,-35.984375,-43.828125,-36.71875,-40.796875,-34.21875,-32.046875
10,3.0,1.0,0.6696764803934913,0.13406250000000028,-0.7524147727272663,0.9130397727272722,-1.2798863636363804,-2.581676136363632,-1.0967045454545457,-0.1428835227272714,-4.626477272727277,-1.7199715909090911,-2.0946022727272675,-2.7685937499999924,-2.8452272727272727,-2.365056818181819,-0.33835227272727336,-1.0198295454545458,-1.8328977272727272,-2.4450000000000003,-2.8065340909090906,-2.5382386363636384,-3.876988636363637,-2.3510795454545472,-4.330909090909091,-4.28931818181818,-5.918181818181819,-5.08568181818182,-2.9819318181818177,-6.1036363636363635,-4.031079545454546,-1.4497159090909093,-2.598238636363638,-1.1287500000000024,1.878068181818179,-2.8297159090909076,-3.724431818181819,2.289715909090904,1.9539204545454538,2.597727272727275,3.579204545454542,3.170625000000001,3.2411931818181814,0.4286931818181813,1.1457954545454583,-4.074715909090907,-2.290568181818179,2.3331818181818162,-0.7996022727272759,4.691079545454545,-4.07318181818182,-7.033125000000001,-1.9984090909090924,-0.9959659090909042,2.1792613636363627,-0.7525568181818187,-3.873920454545458,-1.1134090909090957,-8.706647727272724,-8.129147727272727,-4.2581250000000015,-5.514034090909092,-4.310454545454542
11,3.0,2.0,0.16814318016549404,7.609375,6.755208333333343,6.1796875,6.005208333333314,7.583333333333343,4.09375,5.46484375,0.6354166666666572,4.1015625,3.802083333333343,6.294270833333343,7.5,5.234375,9.609375,10.8125,6.953125,11.046875,5.328125,7.15625,9.25,10.46875,12.0625,7.875,10.984375,10.171875,31.0,23.65625,29.015625,29.15625,6.698863636363626,31.6875,26.587499999999977,13.625,18.96875,33.375,29.109375,28.4375,41.07954545454544,37.875,23.71875,27.921875,41.921875,24.9375,11.59375,30.359375,24.125,36.890625,29.109375,18.921875,19.33125000000001,25.6875,41.0625,28.25,20.26704545454544,33.203125,14.539772727272748,19.039772727272748,26.0625,15.340909090909063,29.79545454545456
12,4.0,0.0,0.16019705187549732,-7.247395833333329,-1.9739583333333288,-7.02734375,-8.895833333333343,-7.40234375,-8.3203125,-9.334635416666655,-9.3125,-5.043749999999989,-9.005208333333343,-10.260937499999995,-11.203125,-6.140625,-7.75,-8.0625,-12.015625,-14.625,-11.78125,-15.5,-10.921875,-13.078125,-12.068181818181811,-15.828125,-15.140625,-16.25,-20.386363636363622,-21.767045454545467,-26.34375,-11.984375,-26.09375,-36.28125,-32.5,-27.71875,-33.53125,-42.21875,-46.5625,-20.25,-14.40625,-15.859375,-21.306818181818187,-21.328125,-30.453125,-21.21875,-26.640625,-44.125,-29.375,-41.421875,-35.640625,-22.96875,-25.625,-31.953125,-35.875,-27.828125,-35.984375,-43.828125,-36.71875,-40.796875,-34.21875,-32.046875,-13.859375
13,4.0,1.0,0.6701011863515892,-0.8777698863636332,0.9555681818181838,-1.2364772727272721,-2.5903409090909193,-0.9873579545454504,-0.3568465909090904,-4.4911363636363575,-1.7038636363636328,-1.8842045454545442,-2.4870738636363683,-2.5925,-2.365056818181819,-0.33835227272727336,-1.0198295454545458,-1.8328977272727272,-2.4450000000000003,-2.8065340909090906,-2.5382386363636384,-3.876988636363637,-2.3510795454545472,-4.330909090909091,-4.28931818181818,-5.918181818181819,-5.08568181818182,-2.9819318181818177,-6.1036363636363635,-4.031079545454546,-1.4497159090909093,-2.598238636363638,-1.1287500000000024,1.878068181818179,-2.8297159090909076,-3.724431818181819,2.289715909090904,1.9539204545454538,2.597727272727275,3.579204545454542,3.170625000000001,3.2411931818181814,0.4286931818181813,1.1457954545454583,-4.074715909090907,-2.290568181818179,2.3331818181818162,-0.7996022727272759,4.691079545454545,-4.07318181818182,-7.033125000000001,-1.9984090909090924,-0.9959659090909042,2.1792613636363627,-0.7525568181818187,-3.873920454545458,-1.1134090909090957,-8.706647727272724,-8.129147727272727,-4.2581250000000015,-5.514034090909092,-4.310454545454542,-0.929488636363635
14,4.0,2.0,0.16970176177291352,3.674479166666672,7.026041666666671,6.28515625,8.354166666666657,4.052083333333343,5.9659090909090935,0.6653645833333428,5.583333333333343,5.90625,7.776041666666657,7.09375,5.234375,9.609375,10.8125,6.953125,11.046875,5.328125,7.15625,9.25,10.46875,12.0625,7.875,10.984375,10.171875,31.0,23.65625,29.015625,29.15625,6.698863636363626,31.6875,26.587499999999977,13.625,18.96875,33.375,29.109375,28.4375,41.07954545454544,37.875,23.71875,27.921875,41.921875,24.9375,11.59375,30.359375,24.125,36.890625,29.109375,18.921875,19.33125000000001,25.6875,41.0625,28.25,20.26704545454544,33.203125,14.539772727272748,19.039772727272748,26.0625,15.340909090909063,29.79545454545456,17.761363636363626
15,5.0,0.0,0.16190195930111395,-4.346354166666671,-8.6875,-8.9296875,-8.796875000000014,-5.87890625,-8.0546875,-10.4140625,-5.25,-6.6796875,-10.421875,-10.06640625,-6.140625,-7.75,-8.0625,-12.015625,-14.625,-11.78125,-15.5,-10.921875,-13.078125,-12.068181818181811,-15.828125,-15.140625,-16.25,-20.386363636363622,-21.767045454545467,-26.34375,-11.984375,-26.09375,-36.28125,-32.5,-27.71875,-33.53125,-42.21875,-46.5625,-20.25,-14.40625,-15.859375,-21.306818181818187,-21.328125,-30.453125,-21.21875,-26.640625,-44.125,-29.375,-41.421875,-35.640625,-22.96875,-25.625,-31.953125,-35.875,-27.828125,-35.984375,-43.828125,-36.71875,-40.796875,-34.21875,-32.046875,-13.859375,-24.5625
16,5.0,1.0,0.6632584574617756,1.9137215909090883,-0.3649431818181782,-1.8583806818181814,-0.22488636363637515,-0.005184659090909172,-3.877670454545455,-1.2971306818181858,-1.370681818181825,-1.989928977272727,-2.211647727272728,-2.1742187499999943,-0.33835227272727336,-1.0198295454545458,-1.8328977272727272,-2.4450000000000003,-2.8065340909090906,-2.5382386363636384,-3.876988636363637,-2.3510795454545472,-4.330909090909091,-4.28931818181818,-5.918181818181819,-5.08568181818182,-2.9819318181818177,-6.1036363636363635,-4.031079545454546,-1.4497159090909093,-2.598238636363638,-1.1287500000000024,1.878068181818179,-2.8297159090909076,-3.724431818181819,2.289715909090904,1.9539204545454538,2.597727272727275,3.579204545454542,3.170625000000001,3.2411931818181814,0.4286931818181813,1.1457954545454583,-4.074715909090907,-2.290568181818179,2.3331818181818162,-0.7996022727272759,4.691079545454545,-4.07318181818182,-7.033125000000001,-1.9984090909090924,-0.9959659090909042,2.1792613636363627,-0.7525568181818187,-3.873920454545458,-1.1134090909090957,-8.706647727272724,-8.129147727272727,-4.2581250000000015,-5.514034090909092,-4.310454545454542,-0.929488636363635,-3.3484090909090924
17,5.0,2.0,0.17483958323711038,6.638020833333329,8.596354166666671,9.59375,8.051136363636346,10.190340909090908,1.9765625,4.658854166666657,5.166666666666657,7.4765625,7.21875,4.970052083333343,9.609375,10.8125,6.953125,11.046875,5.328125,7.15625,9.25,10.46875,12.0625,7.875,10.984375,10.171875,31.0,23.65625,29.015625,29.15625,6.698863636363626,31.6875,26.587499999999977,13.625,18.96875,33.375,29.109375,28.4375,41.07954545454544,37.875,23.71875,27.921875,41.921875,24.9375,11.59375,30.359375,24.125,36.890625,29.109375,18.921875,19.33125000000001,25.6875,41.0625,28.25,20.26704545454544,33.203125,14.539772727272748,19.039772727272748,26.0625,15.340909090909063,29.79545454545456,17.761363636363626,15.528409090909063
18,6.0,0.0,0.16491570746172818,-6.34375,-8.3125,-6.69140625,-7.921875000000014,-9.774739583333329,-9.328125,-5.303124999999994,-7.666666666666657,-10.598437499999989,-10.513020833333345,-5.55078125,-7.75,-8.0625,-12.015625,-14.625,-11.78125,-15.5,-10.921875,-13.078125,-12.068181818181811,-15.828125,-15.140625,-16.25,-20.386363636363622,-21.767045454545467,-26.34375,-11.984375,-26.09375,-36.28125,-32.5,-27.71875,-33.53125,-42.21875,-46.5625,-20.25,-14.40625,-15.859375,-21.306818181818187,-21.328125,-30.453125,-21.21875,-26.640625,-44.125,-29.375,-41.421875,-35.640625,-22.96875,-25.625,-31.953125,-35.875,-27.828125,-35.984375,-43.828125,-36.71875,-40.796875,-34.21875,-32.046875,-13.859375,-24.5625,-24.03125
19,6.0,1.0,0.6661979584925044,-2.115284090909094,-3.498295454545449,-1.5842897727272713,-1.525397727272741,-4.886079545454544,-2.2622727272727277,-1.9790340909090844,-2.364659090909086,-2.4526704545454536,-2.355255681818187,-0.22265625,-1.0198295454545458,-1.8328977272727272,-2.4450000000000003,-2.8065340909090906,-2.5382386363636384,-3.876988636363637,-2.3510795454545472,-4.330909090909091,-4.28931818181818,-5.918181818181819,-5.08568181818182,-2.9819318181818177,-6.1036363636363635,-4.031079545454546,-1.4497159090909093,-2.598238636363638,-1.1287500000000024,1.878068181818179,-2.8297159090909076,-3.724431818181819,2.289715909090904,1.9539204545454538,2.597727272727275,3.579204545454542,3.170625000000001,3.2411931818181814,0.4286931818181813,1.1457954545454583,-4.074715909090907,-2.290568181818179,2.3331818181818162,-0.7996022727272759,4.691079545454545,-4.07318181818182,-7.033125000000001,-1.9984090909090924,-0.9959659090909042,2.1792613636363627,-0.7525568181818187,-3.873920454545458,-1.1134090909090957,-8.706647727272724,-8.129147727272727,-4.2581250000000015,-5.514034090909092,-4.310454545454542,-0.929488636363635,-3.3484090909090924,-5.712102272727276
20,6.0,2.0,0.16888633404576736,3.5325520833333286,3.927083333333343,4.1164772727272805,6.60227272727272,1.2252604166666714,3.015625,3.708333333333343,6.458333333333343,5.4375,3.611979166666657,8.90234375,10.8125,6.953125,11.046875,5.328125,7.15625,9.25,10.46875,12.0625,7.875,10.984375,10.171875,31.0,23.65625,29.015625,29.15625,6.698863636363626,31.6875,26.587499999999977,13.625,18.96875,33.375,29.109375,28.4375,41.07954545454544,37.875,23.71875,27.921875,41.921875,24.9375,11.59375,30.359375,24.125,36.890625,29.109375,18.921875,19.33125000000001,25.6875,41.0625,28.25,20.26704545454544,33.203125,14.539772727272748,19.039772727272748,26.0625,15.340909090909063,29.79545454545456,17.761363636363626,15.528409090909063,13.960227272727252
21,7.0,0.0,0.16660137305180922,-6.8515625,-3.8984375,-4.81640625,-7.244791666666686,-5.7265625,-3.53125,-5.9048295454545325,-9.400000000000006,-9.94921875,-4.1484375,-7.869791666666657,-8.0625,-12.015625,-14.625,-11.78125,-15.5,-10.921875,-13.078125,-12.068181818181811,-15.828125,-15.140625,-16.25,-20.386363636363622,-21.767045454545467,-26.34375,-11.984375,-26.09375,-36.28125,-32.5,-27.71875,-33.53125,-42.21875,-46.5625,-20.25,-14.40625,-15.859375,-21.306818181818187,-21.328125,-30.453125,-21.21875,-26.640625,-44.125,-29.375,-41.421875,-35.640625,-22.96875,-25.625,-31.953125,-35.875,-27.828125,-35.984375,-43.828125,-36.71875,-40.796875,-34.21875,-32.046875,-13.859375,-24.5625,-24.03125,-31.921875
22,7.0,1.0,0.6568282446698095,-1.6257102272727237,0.2156818181818238,-0.2393607954545459,-3.441363636363653,-1.1274147727272676,-0.8405113636363624,-1.3456392045454577,-1.6530681818181818,-1.848792613636364,0.22741477272727195,-0.8317187499999944,-1.8328977272727272,-2.4450000000000003,-2.8065340909090906,-2.5382386363636384,-3.876988636363637,-2.3510795454545472,-4.330909090909091,-4.28931818181818,-5.918181818181819,-5.08568181818182,-2.9819318181818177,-6.1036363636363635,-4.031079545454546,-1.4497159090909093,-2.598238636363638,-1.1287500000000024,1.878068181818179,-2.8297159090909076,-3.724431818181819,2.289715909090904,1.9539204545454538,2.597727272727275,3.579204545454542,3.170625000000001,3.2411931818181814,0.4286931818181813,1.1457954545454583,-4.074715909090907,-2.290568181818179,2.3331818181818162,-0.7996022727272759,4.691079545454545,-4.07318181818182,-7.033125000000001,-1.9984090909090924,-0.9959659090909042,2.1792613636363627,-0.7525568181818187,-3.873920454545458,-1.1134090909090957,-8.706647727272724,-8.129147727272727,-4.2581250000000015,-5.514034090909092,-4.310454545454542,-0.929488636363635,-3.3484090909090924,-5.712102272727276,-9.108920454545455
23,7.0,2.0,0.17657038227838118,2.9947916666666714,5.056818181818187,7.295454545454547,0.2968749999999858,2.794270833333343,3.96875,6.752604166666657,4.125,2.47265625,7.8828125,9.848958333333345,6.953125,11.046875,5.328125,7.15625,9.25,10.46875,12.0625,7.875,10.984375,10.171875,31.0,23.65625,29.015625,29.15625,6.698863636363626,31.6875,26.587499999999977,13.625,18.96875,33.375,29.109375,28.4375,41.07954545454544,37.875,23.71875,27.921875,41.921875,24.9375,11.59375,30.359375,24.125,36.890625,29.109375,18.921875,19.33125000000001,25.6875,41.0625,28.25,20.26704545454544,33.203125,14.539772727272748,19.039772727272748,26.0625,15.340909090909063,29.79545454545456,17.761363636363626,15.528409090909063,13.960227272727252,16.32954545454544
24,8.0,0.0,0.17237924080698844,-5.473958333333329,-7.7109375,-6.93359375,-5.093750000000014,-3.4270833333333286,-6.025568181818187,-7.279687499999994,-9.385416666666655,-3.76171875,-7.645833333333343,-6.71875,-12.015625,-14.625,-11.78125,-15.5,-10.921875,-13.078125,-12.068181818181811,-15.828125,-15.140625,-16.25,-20.386363636363622,-21.767045454545467,-26.34375,-11.984375,-26.09375,-36.28125,-32.5,-27.71875,-33.53125,-42.21875,-46.5625,-20.25,-14.40625,-15.859375,-21.306818181818187,-21.328125,-30.453125,-21.21875,-26.640625,-44.125,-29.375,-41.421875,-35.640625,-22.96875,-25.625,-31.953125,-35.875,-27.828125,-35.984375,-43.828125,-36.71875,-40.796875,-34.21875,-32.046875,-13.859375,-24.5625,-24.03125,-31.921875,-17.953125
25,8.0,1.0,0.6434011951381967,1.817215909090912,0.896676136363638,-2.0982102272727277,-0.045681818181827795,0.29332386363636404,-0.28286931818181815,-0.7612784090909088,-1.201704545454541,0.8665482954545454,-0.40610795454545895,-1.566093749999996,-2.4450000000000003,-2.8065340909090906,-2.5382386363636384,-3.876988636363637,-2.3510795454545472,-4.330909090909091,-4.28931818181818,-5.918181818181819,-5.08568181818182,-2.9819318181818177,-6.1036363636363635,-4.031079545454546,-1.4497159090909093,-2.598238636363638,-1.1287500000000024,1.878068181818179,-2.8297159090909076,-3.724431818181819,2.289715909090904,1.9539204545454538,2.597727272727275,3.579204545454542,3.170625000000001,3.2411931818181814,0.4286931818181813,1.1457954545454583,-4.074715909090907,-2.290568181818179,2.3331818181818162,-0.7996022727272759,4.691079545454545,-4.07318181818182,-7.033125000000001,-1.9984090909090924,-0.9959659090909042,2.1792613636363627,-0.7525568181818187,-3.873920454545458,-1.1134090909090957,-8.706647727272724,-8.129147727272727,-4.2581250000000015,-5.514034090909092,-4.310454545454542,-0.929488636363635,-3.3484090909090924,-5.712102272727276,-9.108920454545455,-6.611079545454544
26,8.0,2.0,0.1842195640548149,6.401041666666671,6.551136363636374,3.33203125,4.531249999999986,3.119791666666657,5.359375,4.25390625,2.552083333333343,7.40625,8.791666666666657,5.889322916666671,11.046875,5.328125,7.15625,9.25,10.46875,12.0625,7.875,10.984375,10.171875,31.0,23.65625,29.015625,29.15625,6.698863636363626,31.6875,26.587499999999977,13.625,18.96875,33.375,29.109375,28.4375,41.07954545454544,37.875,23.71875,27.921875,41.921875,24.9375,11.59375,30.359375,24.125,36.890625,29.109375,18.921875,19.33125000000001,25.6875,41.0625,28.25,20.26704545454544,33.203125,14.539772727272748,19.039772727272748,26.0625,15.340909090909063,29.79545454545456,17.761363636363626,15.528409090909063,13.960227272727252,16.32954545454544,15.17045454545456
27,9.0,0.0,0.17687583277753044,-7.74609375,-9.341145833333329,-7.26136363636364,-5.479166666666686,-8.411931818181813,-9.253124999999995,-11.368489583333345,-4.193181818181813,-8.8125,-6.111979166666657,-11.233072916666655,-14.625,-11.78125,-15.5,-10.921875,-13.078125,-12.068181818181811,-15.828125,-15.140625,-16.25,-20.386363636363622,-21.767045454545467,-26.34375,-11.984375,-26.09375,-36.28125,-32.5,-27.71875,-33.53125,-42.21875,-46.5625,-20.25,-14.40625,-15.859375,-21.306818181818187,-21.328125,-30.453125,-21.21875,-26.640625,-44.125,-29.375,-41.421875,-35.640625,-22.96875,-25.625,-31.953125,-35.875,-27.828125,-35.984375,-43.828125,-36.71875,-40.796875,-34.21875,-32.046875,-13.859375,-24.5625,-24.03125,-31.921875,-17.953125,-18.578125
28,9.0,1.0,0.6436208119412843,-1.081349431818181,-3.5644318181818164,-1.4686363636363637,-0.7728409090909253,-1.115411931818177,-1.460113636363637,-1.8405539772727337,0.5244318181818187,-0.6570596590909105,-1.6711647727272676,-2.1443749999999935,-2.8065340909090906,-2.5382386363636384,-3.876988636363637,-2.3510795454545472,-4.330909090909091,-4.28931818181818,-5.918181818181819,-5.08568181818182,-2.9819318181818177,-6.1036363636363635,-4.031079545454546,-1.4497159090909093,-2.598238636363638,-1.1287500000000024,1.878068181818179,-2.8297159090909076,-3.724431818181819,2.289715909090904,1.9539204545454538,2.597727272727275,3.579204545454542,3.170625000000001,3.2411931818181814,0.4286931818181813,1.1457954545454583,-4.074715909090907,-2.290568181818179,2.3331818181818162,-0.7996022727272759,4.691079545454545,-4.07318181818182,-7.033125000000001,-1.9984090909090924,-0.9959659090909042,2.1792613636363627,-0.7525568181818187,-3.873920454545458,-1.1134090909090957,-8.706647727272724,-8.129147727272727,-4.2581250000000015,-5.514034090909092,-4.310454545454542,-0.929488636363635,-3.3484090909090924,-5.712102272727276,-9.108920454545455,-6.611079545454544,-5.992159090909093
29,9.0,2.0,0.17950335528118522,2.353693181818187,1.2734375,4.6953125,5.770833333333314,8.497395833333343,4.8515625,3.006510416666657,7.21875,8.71875,5.450520833333329,10.485677083333345,5.328125,7.15625,9.25,10.46875,12.0625,7.875,10.984375,10.171875,31.0,23.65625,29.015625,29.15625,6.698863636363626,31.6875,26.587499999999977,13.625,18.96875,33.375,29.109375,28.4375,41.07954545454544,37.875,23.71875,27.921875,41.921875,24.9375,11.59375,30.359375,24.125,36.890625,29.109375,18.921875,19.33125000000001,25.6875,41.0625,28.25,20.26704545454544,33.203125,14.539772727272748,19.039772727272748,26.0625,15.340909090909063,29.79545454545456,17.761363636363626,15.528409090909063,13.960227272727252,16.32954545454544,15.17045454545456,2.421875
30,10.0,0.0,0.18112207987748327,-8.465909090909093,-9.184659090909092,-5.693181818181813,-9.829545454545467,-9.4453125,-7.5078125,-5.1377840909090935,-8.323863636363626,-6.485795454545453,-9.544270833333345,-13.671875,-11.78125,-15.5,-10.921875,-13.078125,-12.068181818181811,-15.828125,-15.140625,-16.25,-20.386363636363622,-21.767045454545467,-26.34375,-11.984375,-26.09375,-36.28125,-32.5,-27.71875,-33.53125,-42.21875,-46.5625,-20.25,-14.40625,-15.859375,-21.306818181818187,-21.328125,-30.453125,-21.21875,-26.640625,-44.125,-29.375,-41.421875,-35.640625,-22.96875,-25.625,-31.953125,-35.875,-27.828125,-35.984375,-43.828125,-36.71875,-40.796875,-34.21875,-32.046875,-13.859375,-24.5625,-24.03125,-31.921875,-17.953125,-18.578125,-23.359375
31,10.0,1.0,0.6305977384475541,-2.2572159090909123,-0.4040909090909038,0.3625568181818181,-0.03232954545455602,-0.5292613636363626,-1.1356534090909094,1.2401278409090906,-0.13613636363635634,-1.2902982954545466,-1.643750000000006,-1.4601562499999943,-2.5382386363636384,-3.876988636363637,-2.3510795454545472,-4.330909090909091,-4.28931818181818,-5.918181818181819,-5.08568181818182,-2.9819318181818177,-6.1036363636363635,-4.031079545454546,-1.4497159090909093,-2.598238636363638,-1.1287500000000024,1.878068181818179,-2.8297159090909076,-3.724431818181819,2.289715909090904,1.9539204545454538,2.597727272727275,3.579204545454542,3.170625000000001,3.2411931818181814,0.4286931818181813,1.1457954545454583,-4.074715909090907,-2.290568181818179,2.3331818181818162,-0.7996022727272759,4.691079545454545,-4.07318181818182,-7.033125000000001,-1.9984090909090924,-0.9959659090909042,2.1792613636363627,-0.7525568181818187,-3.873920454545458,-1.1134090909090957,-8.706647727272724,-8.129147727272727,-4.2581250000000015,-5.514034090909092,-4.310454545454542,-0.929488636363635,-3.3484090909090924,-5.712102272727276,-9.108920454545455,-6.611079545454544,-5.992159090909093,-6.804886363636365
32,10.0,2.0,0.18828018167496274,1.8450520833333288,7.692708333333343,8.546875,11.072916666666655,6.5625,6.3671875,7.55859375,8.770833333333343,5.26171875,10.299479166666655,6.180989583333343,7.15625,9.25,10.46875,12.0625,7.875,10.984375,10.171875,31.0,23.65625,29.015625,29.15625,6.698863636363626,31.6875,26.587499999999977,13.625,18.96875,33.375,29.109375,28.4375,41.07954545454544,37.875,23.71875,27.921875,41.921875,24.9375,11.59375,30.359375,24.125,36.890625,29.109375,18.921875,19.33125000000001,25.6875,41.0625,28.25,20.26704545454544,33.203125,14.539772727272748,19.039772727272748,26.0625,15.340909090909063,29.79545454545456,17.761363636363626,15.528409090909063,13.960227272727252,16.32954545454544,15.17045454545456,2.421875,7.203125
33,11.0,0.0,0.18117329220954986,-6.6171875,-2.8020833333333286,-5.3828125,-6.875000000000014,-6.506510416666657,-1.7578125,-5.536458333333343,-4.177083333333343,-9.10546875,-12.0625,-9.611979166666655,-15.5,-10.921875,-13.078125,-12.068181818181811,-15.828125,-15.140625,-16.25,-20.386363636363622,-21.767045454545467,-26.34375,-11.984375,-26.09375,-36.28125,-32.5,-27.71875,-33.53125,-42.21875,-46.5625,-20.25,-14.40625,-15.859375,-21.306818181818187,-21.328125,-30.453125,-21.21875,-26.640625,-44.125,-29.375,-41.421875,-35.640625,-22.96875,-25.625,-31.953125,-35.875,-27.828125,-35.984375,-43.828125,-36.71875,-40.796875,-34.21875,-32.046875,-13.859375,-24.5625,-24.03125,-31.921875,-17.953125,-18.578125,-23.359375,-19.181249999999977
34,11.0,1.0,0.618381415221345,1.5479545454545487,2.322954545454549,1.813252840909091,1.1015909090908949,0.20674715909091357,2.5308238636363627,0.8972869318181751,-0.4594318181818238,-0.7556250000000005,0.21122159090908496,-0.9579687499999947,-3.876988636363637,-2.3510795454545472,-4.330909090909091,-4.28931818181818,-5.918181818181819,-5.08568181818182,-2.9819318181818177,-6.1036363636363635,-4.031079545454546,-1.4497159090909093,-2.598238636363638,-1.1287500000000024,1.878068181818179,-2.8297159090909076,-3.724431818181819,2.289715909090904,1.9539204545454538,2.597727272727275,3.579204545454542,3.170625000000001,3.2411931818181814,0.4286931818181813,1.1457954545454583,-4.074715909090907,-2.290568181818179,2.3331818181818162,-0.7996022727272759,4.691079545454545,-4.07318181818182,-7.033125000000001,-1.9984090909090924,-0.9959659090909042,2.1792613636363627,-0.7525568181818187,-3.873920454545458,-1.1134090909090957,-8.706647727272724,-8.129147727272727,-4.2581250000000015,-5.514034090909092,-4.310454545454542,-0.929488636363635,-3.3484090909090924,-5.712102272727276,-9.108920454545455,-6.611079545454544,-5.992159090909093,-6.804886363636365,-5.132897727272723
35,11.0,2.0,0.2004452925691051,6.440104166666671,7.510416666666671,10.2734375,5.874999999999986,5.602864583333329,9.65625,9.396874999999994,5.635416666666657,10.20703125,7.221354166666657,8.075520833333343,9.25,10.46875,12.0625,7.875,10.984375,10.171875,31.0,23.65625,29.015625,29.15625,6.698863636363626,31.6875,26.587499999999977,13.625,18.96875,33.375,29.109375,28.4375,41.07954545454544,37.875,23.71875,27.921875,41.921875,24.9375,11.59375,30.359375,24.125,36.890625,29.109375,18.921875,19.33125000000001,25.6875,41.0625,28.25,20.26704545454544,33.203125,14.539772727272748,19.039772727272748,26.0625,15.340909090909063,29.79545454545456,17.761363636363626,15.528409090909063,13.960227272727252,16.32954545454544,15.17045454545456,2.421875,7.203125,23.234375
36,12.0,0.0,0.18275683868453577,-3.5885416666666714,-6.026041666666657,-8.845312500000006,-7.192708333333343,-2.27734375,-5.9375,-6.694010416666657,-9.572916666666655,-12.09375,-8.161458333333343,-13.817708333333345,-10.921875,-13.078125,-12.068181818181811,-15.828125,-15.140625,-16.25,-20.386363636363622,-21.767045454545467,-26.34375,-11.984375,-26.09375,-36.28125,-32.5,-27.71875,-33.53125,-42.21875,-46.5625,-20.25,-14.40625,-15.859375,-21.306818181818187,-21.328125,-30.453125,-21.21875,-26.640625,-44.125,-29.375,-41.421875,-35.640625,-22.96875,-25.625,-31.953125,-35.875,-27.828125,-35.984375,-43.828125,-36.71875,-40.796875,-34.21875,-32.046875,-13.859375,-24.5625,-24.03125,-31.921875,-17.953125,-18.578125,-23.359375,-19.181249999999977,-21.890625
37,12.0,1.0,0.6167357991566168,1.102102272727271,0.7963352272727334,0.18869318181818073,-0.6758522727272848,1.9152698863636375,0.34321022727272765,-0.8973153409090855,-0.8174999999999951,1.2513494318181813,0.3098011363636289,-2.596093750000006,-2.3510795454545472,-4.330909090909091,-4.28931818181818,-5.918181818181819,-5.08568181818182,-2.9819318181818177,-6.1036363636363635,-4.031079545454546,-1.4497159090909093,-2.598238636363638,-1.1287500000000024,1.878068181818179,-2.8297159090909076,-3.724431818181819,2.289715909090904,1.9539204545454538,2.597727272727275,3.579204545454542,3.170625000000001,3.2411931818181814,0.4286931818181813,1.1457954545454583,-4.074715909090907,-2.290568181818179,2.3331818181818162,-0.7996022727272759,4.691079545454545,-4.07318181818182,-7.033125000000001,-1.9984090909090924,-0.9959659090909042,2.1792613636363627,-0.7525568181818187,-3.873920454545458,-1.1134090909090957,-8.706647727272724,-8.129147727272727,-4.2581250000000015,-5.514034090909092,-4.310454545454542,-0.929488636363635,-3.3484090909090924,-5.712102272727276,-9.108920454545455,-6.611079545454544,-5.992159090909093,-6.804886363636365,-5.132897727272723,-5.763749999999999
38,12.0,2.0,0.20050736215884743,8.2109375,10.234375,10.39453125,7.828124999999986,6.828125,7.75,5.790364583333343,9.552083333333345,7.88671875,8.807291666666657,9.947916666666655,10.46875,12.0625,7.875,10.984375,10.171875,31.0,23.65625,29.015625,29.15625,6.698863636363626,31.6875,26.587499999999977,13.625,18.96875,33.375,29.109375,28.4375,41.07954545454544,37.875,23.71875,27.921875,41.921875,24.9375,11.59375,30.359375,24.125,36.890625,29.109375,18.921875,19.33125000000001,25.6875,41.0625,28.25,20.26704545454544,33.203125,14.539772727272748,19.039772727272748,26.0625,15.340909090909063,29.79545454545456,17.761363636363626,15.528409090909063,13.960227272727252,16.32954545454544,15.17045454545456,2.421875,7.203125,23.234375,15.046875
39,13.0,0.0,0.18603242498817532,-5.497395833333329,-6.521874999999994,-7.87890625,-3.171875000000014,-6.401041666666657,-7.7734375,-9.977864583333345,-11.875,-6.9609375,-12.541666666666655,-10.35546875,-13.078125,-12.068181818181811,-15.828125,-15.140625,-16.25,-20.386363636363622,-21.767045454545467,-26.34375,-11.984375,-26.09375,-36.28125,-32.5,-27.71875,-33.53125,-42.21875,-46.5625,-20.25,-14.40625,-15.859375,-21.306818181818187,-21.328125,-30.453125,-21.21875,-26.640625,-44.125,-29.375,-41.421875,-35.640625,-22.96875,-25.625,-31.953125,-35.875,-27.828125,-35.984375,-43.828125,-36.71875,-40.796875,-34.21875,-32.046875,-13.859375,-24.5625,-24.03125,-31.921875,-17.953125,-18.578125,-23.359375,-19.181249999999977,-21.890625,-18.296875
40,13.0,1.0,0.6175506428870263,-0.13776988636363252,-0.6773295454545447,-1.5475142045454546,1.274715909090895,-0.27180397727272093,-1.4320738636363628,-1.012187500000005,2.122727272727278,1.372883522727271,-1.5558238636363595,1.1745312500000125,-4.330909090909091,-4.28931818181818,-5.918181818181819,-5.08568181818182,-2.9819318181818177,-6.1036363636363635,-4.031079545454546,-1.4497159090909093,-2.598238636363638,-1.1287500000000024,1.878068181818179,-2.8297159090909076,-3.724431818181819,2.289715909090904,1.9539204545454538,2.597727272727275,3.579204545454542,3.170625000000001,3.2411931818181814,0.4286931818181813,1.1457954545454583,-4.074715909090907,-2.290568181818179,2.3331818181818162,-0.7996022727272759,4.691079545454545,-4.07318181818182,-7.033125000000001,-1.9984090909090924,-0.9959659090909042,2.1792613636363627,-0.7525568181818187,-3.873920454545458,-1.1134090909090957,-8.706647727272724,-8.129147727272727,-4.2581250000000015,-5.514034090909092,-4.310454545454542,-0.929488636363635,-3.3484090909090924,-5.712102272727276,-9.108920454545455,-6.611079545454544,-5.992159090909093,-6.804886363636365,-5.132897727272723,-5.763749999999999,-2.1207954545454584
41,13.0,2.0,0.19641693212479835,5.268229166666671,5.3125,2.3139204545454533,8.749999999999986,8.546875,4.6015625,10.037760416666655,9.427083333333345,10.1484375,10.989583333333345,14.783854166666686,12.0625,7.875,10.984375,10.171875,31.0,23.65625,29.015625,29.15625,6.698863636363626,31.6875,26.587499999999977,13.625,18.96875,33.375,29.109375,28.4375,41.07954545454544,37.875,23.71875,27.921875,41.921875,24.9375,11.59375,30.359375,24.125,36.890625,29.109375,18.921875,19.33125000000001,25.6875,41.0625,28.25,20.26704545454544,33.203125,14.539772727272748,19.039772727272748,26.0625,15.340909090909063,29.79545454545456,17.761363636363626,15.528409090909063,13.960227272727252,16.32954545454544,15.17045454545456,2.421875,7.203125,23.234375,15.046875,7.462499999999977
42,14.0,0.0,0.1235255823808856,-7.370312499999997,-12.377604166666655,-4.2890625,-9.958333333333345,-10.196614583333329,-8.3515625,-10.5625,-5.416666666666657,-9.796875,-9.5390625,-12.30078125,-12.068181818181811,-15.828125,-15.140625,-16.25,-20.386363636363622,-21.767045454545467,-26.34375,-11.984375,-26.09375,-36.28125,-32.5,-27.71875,-33.53125,-42.21875,-46.5625,-20.25,-14.40625,-15.859375,-21.306818181818187,-21.328125,-30.453125,-21.21875,-26.640625,-44.125,-29.375,-41.421875,-35.640625,-22.96875,-25.625,-31.953125,-35.875,-27.828125,-35.984375,-43.828125,-36.71875,-40.796875,-34.21875,-32.046875,-13.859375,-24.5625,-24.03125,-31.921875,-17.953125,-18.578125,-23.359375,-19.181249999999977,-21.890625,-18.296875,-168.76875
43,14.0,1.0,0.6150759251844519,-0.5808522727272717,-1.5660511363636302,1.3779119318181814,-0.25244318181819236,-1.441832386363636,-0.7912499999999995,3.3003551136363596,2.6328409090909135,-0.42805397727272804,4.678267045454552,-0.7840624999999875,-4.28931818181818,-5.918181818181819,-5.08568181818182,-2.9819318181818177,-6.1036363636363635,-4.031079545454546,-1.4497159090909093,-2.598238636363638,-1.1287500000000024,1.878068181818179,-2.8297159090909076,-3.724431818181819,2.289715909090904,1.9539204545454538,2.597727272727275,3.579204545454542,3.170625000000001,3.2411931818181814,0.4286931818181813,1.1457954545454583,-4.074715909090907,-2.290568181818179,2.3331818181818162,-0.7996022727272759,4.691079545454545,-4.07318181818182,-7.033125000000001,-1.9984090909090924,-0.9959659090909042,2.1792613636363627,-0.7525568181818187,-3.873920454545458,-1.1134090909090957,-8.706647727272724,-8.129147727272727,-4.2581250000000015,-5.514034090909092,-4.310454545454542,-0.929488636363635,-3.3484090909090924,-5.712102272727276,-9.108920454545455,-6.611079545454544,-5.992159090909093,-6.804886363636365,-5.132897727272723,-5.763749999999999,-2.1207954545454584,-21.90954545454546
44,14.0,2.0,0.2613984924346626,6.296875,6.684895833333343,8.44921875,8.979166666666657,4.975260416666671,10.4921875,10.998697916666655,11.583333333333345,12.1875,19.505208333333343,16.119791666666686,7.875,10.984375,10.171875,31.0,23.65625,29.015625,29.15625,6.698863636363626,31.6875,26.587499999999977,13.625,18.96875,33.375,29.109375,28.4375,41.07954545454544,37.875,23.71875,27.921875,41.921875,24.9375,11.59375,30.359375,24.125,36.890625,29.109375,18.921875,19.33125000000001,25.6875,41.0625,28.25,20.26704545454544,33.203125,14.539772727272748,19.039772727272748,26.0625,15.340909090909063,29.79545454545456,17.761363636363626,15.528409090909063,13.960227272727252,16.32954545454544,15.17045454545456,2.421875,7.203125,23.234375,15.046875,7.462499999999977,30.328125
45,15.0,0.0,0.20478819904593684,-11.970052083333329,-5.265625,-9.671875,-8.182291666666686,-8.615885416666657,-10.5,-3.356770833333343,-9.270833333333345,-9.22265625,-11.7734375,-6.8828125,-15.828125,-15.140625,-16.25,-20.386363636363622,-21.767045454545467,-15.125,-11.984375,-26.09375,-36.28125,-32.5,-27.71875,-33.53125,-42.21875,-46.5625,-20.25,-14.40625,-15.859375,-21.306818181818187,-21.328125,-30.453125,-21.21875,-26.640625,-44.125,-29.375,-41.421875,-35.640625,-22.96875,-25.625,-31.953125,-35.875,-27.828125,-35.984375,-43.828125,-36.71875,-40.796875,-34.21875,-32.046875,-13.859375,-24.5625,-24.03125,-31.921875,-17.953125,-18.578125,-23.359375,-16.703125,-21.890625,-18.296875,-19.921875,-25.921875
46,15.0,1.0,0.5837471894366532,-1.8795770202020177,0.4928977272727274,-1.3572443181818177,-1.881628787878804,-0.8003472222222159,4.0866477272727275,3.5209911616161533,0.7670454545454479,7.865767045454545,2.4013573232323324,-0.9340277777777778,-5.31534090909091,-4.450757575757576,-2.450757575757576,-5.265151515151514,-3.1060606060606073,1.3162878787878785,-2.0994318181818192,-1.2291666666666667,-0.867424242424243,-3.5795454545454515,-4.00284090909091,3.287878787878785,3.196022727272729,0.9071969696969719,2.199810606060604,3.2916666666666665,0.9659090909090904,-0.461174242424243,0.9564393939393957,-4.569128787878785,-2.5596590909090904,0.7320075757575764,1.1032196969696946,3.0331439393939377,-5.304924242424243,-6.395833333333333,-4.368371212121215,-3.2670454545454515,-2.141098484848486,-3.554924242424243,-6.310606060606062,-4.035037878787882,-9.946969696969695,-11.061553030303028,-7.364583333333333,-7.712121212121215,-4.189393939393938,-2.1306818181818192,-4.878787878787882,-7.532196969696972,-9.196022727272728,-5.887310606060605,-5.8267045454545485,-5.827651515151514,-3.5719696969696946,-7.4375,-3.1856060606060623,-5.591856060606062,-3.7045454545454515
47,15.0,2.0,0.21146461151741003,4.536931818181813,3.8515625,7.203125,6.567708333333314,6.790364583333343,11.6640625,10.111979166666655,11.104166666666655,24.4453125,19.145833333333343,11.984375,10.984375,10.171875,31.0,23.65625,29.015625,29.15625,6.698863636363626,31.6875,25.568181818181813,13.625,18.96875,33.375,29.109375,28.4375,41.07954545454544,37.875,11.203125,27.921875,41.921875,24.9375,11.59375,30.359375,24.125,36.890625,29.109375,18.921875,16.59375,25.6875,40.3125,28.25,20.26704545454544,33.203125,14.539772727272748,19.039772727272748,26.0625,15.340909090909063,29.79545454545456,17.761363636363626,15.528409090909063,13.960227272727252,16.32954545454544,15.17045454545456,2.421875,7.203125,23.234375,15.046875,5.890625,30.328125,39.515625
48,16.0,0.0,0.21457170626300665,-4.80859375,-7.534090909090906,-7.58984375,-10.755208333333345,-6.3125,-3.640625,-9.354166666666655,-6.65625,-9.62109375,-5.359375,-9.9375,-15.140625,-16.25,-20.386363636363622,-21.767045454545467,-15.125,-11.984375,-26.09375,-36.28125,-32.5,-27.71875,-33.53125,-42.21875,-46.5625,-20.25,-14.40625,-15.859375,-21.306818181818187,-21.328125,-30.453125,-21.21875,-26.640625,-44.125,-29.375,-41.421875,-35.640625,-22.96875,-25.625,-31.953125,-35.875,-27.828125,-35.984375,-43.828125,-36.71875,-40.796875,-34.21875,-32.046875,-13.859375,-24.5625,-24.03125,-31.921875,-17.953125,-18.578125,-23.359375,-16.703125,-21.890625,-18.296875,-19.921875,-25.921875,-26.403409090909065
49,16.0,1.0,0.5417964967294844,2.3228377525252535,0.2271148989899057,-0.48934659090909033,0.6736111111110998,6.318734217171722,5.68465909090909,2.6407828282828327,11.859848484848477,6.28622159090909,3.2159090909090935,-0.6883680555555429,-4.450757575757576,-2.450757575757576,-5.265151515151514,-3.1060606060606073,1.3162878787878785,-2.0994318181818192,-1.2291666666666667,-0.867424242424243,-3.5795454545454515,-4.00284090909091,3.287878787878785,3.196022727272729,0.9071969696969719,2.199810606060604,3.2916666666666665,0.9659090909090904,-0.461174242424243,0.9564393939393957,-4.569128787878785,-2.5596590909090904,0.7320075757575764,1.1032196969696946,3.0331439393939377,-5.304924242424243,-6.395833333333333,-4.368371212121215,-3.2670454545454515,-2.141098484848486,-3.554924242424243,-6.310606060606062,-4.035037878787882,-9.946969696969695,-11.061553030303028,-7.364583333333333,-7.712121212121215,-4.189393939393938,-2.1306818181818192,-4.878787878787882,-7.532196969696972,-9.196022727272728,-5.887310606060605,-5.8267045454545485,-5.827651515151514,-3.5719696969696946,-7.4375,-3.1856060606060623,-5.591856060606062,-3.7045454545454515,-6.5482954545454515
50,16.0,2.0,0.24363179700750903,10.53515625,6.489583333333343,9.47265625,8.682291666666657,15.391927083333329,16.796875,13.130208333333345,27.479166666666657,23.625,16.71875,16.365885416666686,10.171875,31.0,23.65625,29.015625,29.15625,6.698863636363626,31.6875,25.568181818181813,13.625,18.96875,33.375,29.109375,28.4375,41.07954545454544,37.875,11.203125,27.921875,41.921875,24.9375,11.59375,30.359375,24.125,36.890625,29.109375,18.921875,16.59375,25.6875,40.3125,28.25,20.26704545454544,33.203125,14.539772727272748,19.039772727272748,26.0625,15.340909090909063,29.79545454545456,17.761363636363626,15.528409090909063,13.960227272727252,16.32954545454544,15.17045454545456,2.421875,7.203125,23.234375,15.046875,5.890625,30.328125,39.515625,19.96875
51,17.0,0.0,0.22796317614422723,-9.411458333333329,-8.966145833333329,-7.08203125,-11.125000000000014,-1.0494791666666572,-5.78125,-9.33984375,-11.46875,-6.5859375,-10.875,-9.41015625,-16.25,-20.386363636363622,-21.767045454545467,-15.125,-11.984375,-26.09375,-36.28125,-32.5,-27.71875,-33.53125,-42.21875,-46.5625,-20.25,-14.40625,-15.859375,-21.306818181818187,-21.328125,-30.453125,-21.21875,-26.640625,-44.125,-29.375,-41.421875,-35.640625,-22.96875,-25.625,-31.953125,-35.875,-27.828125,-35.984375,-43.828125,-36.71875,-40.796875,-34.21875,-32.046875,-13.859375,-24.5625,-24.03125,-31.921875,-17.953125,-18.578125,-23.359375,-16.703125,-21.890625,-18.296875,-19.921875,-25.921875,-26.403409090909065,-20.421875
52,17.0,1.0,0.5286288374645838,-1.9697758838383805,-2.5067866161616132,-0.890625,5.884154040404029,5.553188131313139,2.5909090909090904,14.301846590909097,8.990530303030296,6.556818181818181,3.5011047979798047,-0.008680555555555556,-2.450757575757576,-5.265151515151514,-3.1060606060606073,1.3162878787878785,-2.0994318181818192,-1.2291666666666667,-0.867424242424243,-3.5795454545454515,-4.00284090909091,3.287878787878785,3.196022727272729,0.9071969696969719,2.199810606060604,3.2916666666666665,0.9659090909090904,-0.461174242424243,0.9564393939393957,-4.569128787878785,-2.5596590909090904,0.7320075757575764,1.1032196969696946,3.0331439393939377,-5.304924242424243,-6.395833333333333,-4.368371212121215,-3.2670454545454515,-2.141098484848486,-3.554924242424243,-6.310606060606062,-4.035037878787882,-9.946969696969695,-11.061553030303028,-7.364583333333333,-7.712121212121215,-4.189393939393938,-2.1306818181818192,-4.878787878787882,-7.532196969696972,-9.196022727272728,-5.887310606060605,-5.8267045454545485,-5.827651515151514,-3.5719696969696946,-7.4375,-3.1856060606060623,-5.591856060606062,-3.7045454545454515,-6.5482954545454515,-2.544507575757576
53,17.0,2.0,0.24340798639118896,3.5572916666666714,5.002604166666671,8.61328125,13.338541666666655,12.263020833333345,11.09375,31.731770833333343,25.604166666666657,19.734375,20.809895833333343,16.05859375,31.0,23.65625,29.015625,29.15625,6.698863636363626,31.6875,25.568181818181813,13.625,18.96875,33.375,29.109375,28.4375,41.07954545454544,37.875,11.203125,27.921875,41.921875,24.9375,11.59375,30.359375,24.125,36.890625,29.109375,18.921875,16.59375,25.6875,40.3125,28.25,20.26704545454544,33.203125,14.539772727272748,19.039772727272748,26.0625,15.340909090909063,29.79545454545456,17.761363636363626,15.528409090909063,13.960227272727252,16.32954545454544,15.17045454545456,2.421875,7.203125,23.234375,15.046875,5.890625,30.328125,39.515625,19.96875,39.765625
54,18.0,0.0,0.24043466356078247,-6.779947916666671,-7.377604166666657,-7.875,1.8229166666666567,-3.723958333333343,-7.1484375,-9.50390625,-5.0625,-10.125,-4.9921875,-10.40625,-20.386363636363622,-21.767045454545467,-15.125,-11.984375,-26.09375,-36.28125,-32.5,-27.71875,-33.53125,-42.21875,-46.5625,-20.25,-14.40625,-15.859375,-21.306818181818187,-21.328125,-30.453125,-21.21875,-26.640625,-44.125,-29.375,-41.421875,-35.640625,-22.96875,-25.625,-31.953125,-35.875,-27.828125,-35.984375,-43.828125,-36.71875,-40.796875,-34.21875,-32.046875,-13.859375,-24.5625,-24.03125,-31.921875,-17.953125,-18.578125,-23.359375,-16.703125,-21.890625,-18.296875,-19.921875,-25.921875,-26.403409090909065,-20.421875,-17.234375
55,18.0,1.0,0.4833338532595078,-0.7412405303030327,0.9444444444444507,8.465198863636365,8.053661616161605,4.789299242424241,18.608428030303028,13.175741792929301,10.994949494949497,8.40411931818182,4.763257575757576,2.552083333333346,-5.265151515151514,-3.1060606060606073,1.3162878787878785,-2.0994318181818192,-1.2291666666666667,-0.867424242424243,-3.5795454545454515,-4.00284090909091,3.287878787878785,3.196022727272729,0.9071969696969719,2.199810606060604,3.2916666666666665,0.9659090909090904,-0.461174242424243,0.9564393939393957,-4.569128787878785,-2.5596590909090904,0.7320075757575764,1.1032196969696946,3.0331439393939377,-5.304924242424243,-6.395833333333333,-4.368371212121215,-3.2670454545454515,-2.141098484848486,-3.554924242424243,-6.310606060606062,-4.035037878787882,-9.946969696969695,-11.061553030303028,-7.364583333333333,-7.712121212121215,-4.189393939393938,-2.1306818181818192,-4.878787878787882,-7.532196969696972,-9.196022727272728,-5.887310606060605,-5.8267045454545485,-5.827651515151514,-3.5719696969696946,-7.4375,-3.1856060606060623,-5.591856060606062,-3.7045454545454515,-6.5482954545454515,-2.544507575757576,-1.8390151515151527
56,18.0,2.0,0.27623148317970986,4.516927083333329,9.8984375,17.97265625,19.822916666666657,11.401041666666671,34.203125,28.989583333333343,23.6875,25.72265625,21.3515625,37.119791666666686,23.65625,29.015625,29.15625,6.698863636363626,31.6875,25.568181818181813,13.625,18.96875,33.375,29.109375,28.4375,41.07954545454544,37.875,11.203125,27.921875,41.921875,24.9375,11.59375,30.359375,24.125,36.890625,29.109375,18.921875,16.59375,25.6875,40.3125,28.25,20.26704545454544,33.203125,14.539772727272748,19.039772727272748,26.0625,15.340909090909063,29.79545454545456,17.761363636363626,15.528409090909063,13.960227272727252,16.32954545454544,15.17045454545456,2.421875,7.203125,23.234375,15.046875,5.890625,30.328125,39.515625,19.96875,39.765625,28.890625
57,19.0,0.0,0.2555088464351824,-3.7513020833333286,-5.875,4.8828125,-0.5416666666666856,-5.64453125,-8.0390625,-3.8515625,-9.5,-4.60546875,-10.25,-12.921874999999972,-21.767045454545467,-15.125,-11.984375,-26.09375,-36.28125,-32.5,-27.71875,-33.53125,-42.21875,-46.5625,-20.25,-14.40625,-15.859375,-21.306818181818187,-21.328125,-30.453125,-21.21875,-26.640625,-44.125,-29.375,-41.421875,-35.640625,-22.96875,-25.625,-31.953125,-35.875,-27.828125,-35.984375,-43.828125,-36.71875,-40.796875,-34.21875,-32.046875,-13.859375,-24.5625,-24.03125,-31.921875,-17.953125,-18.578125,-23.359375,-16.703125,-21.890625,-18.296875,-19.921875,-25.921875,-26.403409090909065,-20.421875,-17.234375,-26.875
58,19.0,1.0,0.45028882990119723,1.8680555555555587,10.247632575757583,9.868371212121211,6.41477272727271,22.45494002525253,17.013731060606062,15.19870580808081,13.185606060606053,9.526515151515152,7.659090909090916,0.3454861111111206,-3.1060606060606073,1.3162878787878785,-2.0994318181818192,-1.2291666666666667,-0.867424242424243,-3.5795454545454515,-4.00284090909091,3.287878787878785,3.196022727272729,0.9071969696969719,2.199810606060604,3.2916666666666665,0.9659090909090904,-0.461174242424243,0.9564393939393957,-4.569128787878785,-2.5596590909090904,0.7320075757575764,1.1032196969696946,3.0331439393939377,-5.304924242424243,-6.395833333333333,-4.368371212121215,-3.2670454545454515,-2.141098484848486,-3.554924242424243,-6.310606060606062,-4.035037878787882,-9.946969696969695,-11.061553030303028,-7.364583333333333,-7.712121212121215,-4.189393939393938,-2.1306818181818192,-4.878787878787882,-7.532196969696972,-9.196022727272728,-5.887310606060605,-5.8267045454545485,-5.827651515151514,-3.5719696969696946,-7.4375,-3.1856060606060623,-5.591856060606062,-3.7045454545454515,-6.5482954545454515,-2.544507575757576,-1.8390151515151527,0.1676136363636355
59,19.0,2.0,0.29420232366362026,7.15234375,16.388020833333343,18.5703125,14.708333333333314,40.565104166666686,34.625,29.515625,32.13541666666666,27.97265625,43.92708333333334,30.747395833333343,29.015625,29.15625,6.698863636363626,31.6875,25.568181818181813,13.625,18.96875,33.375,29.109375,28.4375,41.07954545454544,37.875,11.203125,27.921875,41.921875,24.9375,11.59375,30.359375,24.125,36.890625,29.109375,18.921875,16.59375,25.6875,40.3125,28.25,20.26704545454544,33.203125,14.539772727272748,19.039772727272748,26.0625,15.340909090909063,29.79545454545456,17.761363636363626,15.528409090909063,13.960227272727252,16.32954545454544,15.17045454545456,2.421875,7.203125,23.234375,15.046875,5.890625,30.328125,39.515625,19.96875,39.765625,28.890625,18.10227272727272
60,20.0,0.0,0.2777992693072218,-7.40625,2.859375,-1.359375,-6.640625000000014,-8.73046875,-6.328125,-10.5,-5.34375,-10.875,-6.421875,-14.203125,-15.125,-11.984375,-26.09375,-36.28125,-32.5,-27.71875,-33.53125,-42.21875,-46.5625,-20.25,-14.40625,-15.859375,-21.306818181818187,-21.328125,-30.453125,-21.21875,-26.640625,-44.125,-29.375,-41.421875,-35.640625,-22.96875,-25.625,-31.953125,-35.875,-27.828125,-35.984375,-43.828125,-36.71875,-40.796875,-34.21875,-32.046875,-13.859375,-24.5625,-24.03125,-31.921875,-17.953125,-18.578125,-23.359375,-16.703125,-21.890625,-18.296875,-19.921875,-25.921875,-26.403409090909065,-20.421875,-17.234375,-26.875,-20.25
61,20.0,1.0,0.42877808114610455,9.479719065656568,9.374053030303038,5.972537878787879,24.475063131313114,19.266650883838395,18.05871212121212,16.864662247474755,13.428661616161614,12.14630681818182,5.57765151515153,2.7274305555555554,1.3162878787878785,-2.0994318181818192,-1.2291666666666667,-0.867424242424243,-3.5795454545454515,-4.00284090909091,3.287878787878785,3.196022727272729,0.9071969696969719,2.199810606060604,3.2916666666666665,0.9659090909090904,-0.461174242424243,0.9564393939393957,-4.569128787878785,-2.5596590909090904,0.7320075757575764,1.1032196969696946,3.0331439393939377,-5.304924242424243,-6.395833333333333,-4.368371212121215,-3.2670454545454515,-2.141098484848486,-3.554924242424243,-6.310606060606062,-4.035037878787882,-9.946969696969695,-11.061553030303028,-7.364583333333333,-7.712121212121215,-4.189393939393938,-2.1306818181818192,-4.878787878787882,-7.532196969696972,-9.196022727272728,-5.887310606060605,-5.8267045454545485,-5.827651515151514,-3.5719696969696946,-7.4375,-3.1856060606060623,-5.591856060606062,-3.7045454545454515,-6.5482954545454515,-2.544507575757576,-1.8390151515151527,0.1676136363636355,3.005681818181819
62,20.0,2.0,0.2934226495466737,17.97526041666667,16.130208333333343,16.703125,47.239583333333314,34.666666666666686,30.65625,34.86067708333334,35.09375,51.28125,38.432291666666686,36.87890625,29.15625,6.698863636363626,31.6875,25.568181818181813,13.625,18.96875,33.375,29.109375,28.4375,41.07954545454544,37.875,11.203125,27.921875,41.921875,24.9375,11.59375,30.359375,24.125,36.890625,29.109375,18.921875,16.59375,25.6875,40.3125,28.25,20.26704545454544,33.203125,14.539772727272748,19.039772727272748,26.0625,15.340909090909063,29.79545454545456,17.761363636363626,15.528409090909063,13.960227272727252,16.32954545454544,15.17045454545456,2.421875,7.203125,23.234375,15.046875,5.890625,30.328125,39.515625,19.96875,39.765625,28.890625,18.10227272727272,21.98863636363637
63,21.0,0.0,0.2689283647605292,-6.013020833333343,-10.44602272727272,-2.30859375,-3.609375000000014,-3.6328125,-8.71875,-3.69140625,-8.8125,-5.8828125,-9.014204545454533,-11.2109375,-11.984375,-26.09375,-36.28125,-32.5,-27.71875,-33.53125,-42.21875,-46.5625,-20.25,-14.40625,-15.859375,-21.306818181818187,-21.328125,-30.453125,-21.21875,-26.640625,-44.125,-29.375,-41.421875,-35.640625,-22.96875,-25.625,-31.953125,-35.875,-27.828125,-35.984375,-43.828125,-36.71875,-40.796875,-34.21875,-32.046875,-13.859375,-24.5625,-24.03125,-31.921875,-17.953125,-18.578125,-23.359375,-16.703125,-21.890625,-18.296875,-19.921875,-25.921875,-26.403409090909065,-20.421875,-17.234375,-26.875,-20.25,-23.40625
64,21.0,1.0,0.4463919434182097,0.862373737373733,-1.7926136363636387,19.866714015151516,15.585542929292911,15.679135101010104,15.998579545454545,13.480113636363635,13.47727272727274,8.348011363636365,6.793560606060627,7.40277777777779,-2.0994318181818192,-1.2291666666666667,-0.867424242424243,-3.5795454545454515,-4.00284090909091,3.287878787878785,3.196022727272729,0.9071969696969719,2.199810606060604,3.2916666666666665,0.9659090909090904,-0.461174242424243,0.9564393939393957,-4.569128787878785,-2.5596590909090904,0.7320075757575764,1.1032196969696946,3.0331439393939377,-5.304924242424243,-6.395833333333333,-4.368371212121215,-3.2670454545454515,-2.141098484848486,-3.554924242424243,-6.310606060606062,-4.035037878787882,-9.946969696969695,-11.061553030303028,-7.364583333333333,-7.712121212121215,-4.189393939393938,-2.1306818181818192,-4.878787878787882,-7.532196969696972,-9.196022727272728,-5.887310606060605,-5.8267045454545485,-5.827651515151514,-3.5719696969696946,-7.4375,-3.1856060606060623,-5.591856060606062,-3.7045454545454515,-6.5482954545454515,-2.544507575757576,-1.8390151515151527,0.1676136363636355,3.005681818181819,2.9270833333333335
65,21.0,2.0,0.284679691821261,14.8046875,14.53125,37.0703125,31.895833333333314,29.203125,35.0234375,33.12109375,51.479166666666686,40.8984375,41.46093750000003,33.901041666666686,6.698863636363626,31.6875,25.568181818181813,13.625,18.96875,33.375,29.109375,28.4375,41.07954545454544,37.875,11.203125,27.921875,41.921875,24.9375,11.59375,30.359375,24.125,36.890625,29.109375,18.921875,16.59375,25.6875,40.3125,28.25,20.26704545454544,33.203125,14.539772727272748,19.039772727272748,26.0625,15.340909090909063,29.79545454545456,17.761363636363626,15.528409090909063,13.960227272727252,16.32954545454544,15.17045454545456,2.421875,7.203125,23.234375,15.046875,5.890625,30.328125,39.515625,19.96875,39.765625,28.890625,18.10227272727272,21.98863636363637,24.59375
66,22.0,0.0,0.3139066616312809,-8.06676136363636,-13.6953125,-14.80078125,-9.968750000000014,-15.96875,-10.3828125,-15.3125,-9.125,-4.46484375,-12.140625,-3.7513020833333135,-26.09375,-36.28125,-32.5,-27.71875,-33.53125,-42.21875,-46.5625,-20.25,-14.40625,-15.859375,-21.306818181818187,-21.328125,-30.453125,-21.21875,-26.640625,-44.125,-29.375,-41.421875,-35.640625,-22.96875,-25.625,-31.953125,-35.875,-27.828125,-35.984375,-43.828125,-36.71875,-40.796875,-34.21875,-32.046875,-13.859375,-24.5625,-24.03125,-31.921875,-17.953125,-18.578125,-23.359375,-16.703125,-21.890625,-18.296875,-19.921875,-25.921875,-26.403409090909065,-20.421875,-17.234375,-26.875,-20.25,-23.40625,-17.921875
67,22.0,1.0,0.41452965753677895,-2.693181818181818,21.338226010101003,17.199573863636363,17.809974747474744,18.8581912878788,16.47253787878788,16.96448863636364,12.489898989898998,11.446496212121211,13.291351010101017,4.889756944444457,-1.2291666666666667,-0.867424242424243,-3.5795454545454515,-4.00284090909091,3.287878787878785,3.196022727272729,0.9071969696969719,2.199810606060604,3.2916666666666665,0.9659090909090904,-0.461174242424243,0.9564393939393957,-4.569128787878785,-2.5596590909090904,0.7320075757575764,1.1032196969696946,3.0331439393939377,-5.304924242424243,-6.395833333333333,-4.368371212121215,-3.2670454545454515,-2.141098484848486,-3.554924242424243,-6.310606060606062,-4.035037878787882,-9.946969696969695,-11.061553030303028,-7.364583333333333,-7.712121212121215,-4.189393939393938,-2.1306818181818192,-4.878787878787882,-7.532196969696972,-9.196022727272728,-5.887310606060605,-5.8267045454545485,-5.827651515151514,-3.5719696969696946,-7.4375,-3.1856060606060623,-5.591856060606062,-3.7045454545454515,-6.5482954545454515,-2.544507575757576,-1.8390151515151527,0.1676136363636355,3.005681818181819,2.9270833333333335,1.4242424242424236
68,22.0,2.0,0.27156368083194005,5.552083333333329,43.46354166666666,33.25,31.25,38.154947916666686,39.7734375,58.31770833333334,48.02083333333334,48.71484375,41.98958333333334,15.96875,31.6875,25.568181818181813,13.625,18.96875,33.375,29.109375,28.4375,41.07954545454544,37.875,11.203125,27.921875,41.921875,24.9375,11.59375,30.359375,24.125,36.890625,29.109375,18.921875,16.59375,25.6875,40.3125,28.25,20.26704545454544,33.203125,14.539772727272748,19.039772727272748,26.0625,15.340909090909063,29.79545454545456,17.761363636363626,15.528409090909063,13.960227272727252,16.32954545454544,15.17045454545456,2.421875,7.203125,23.234375,15.046875,5.890625,30.328125,39.515625,19.96875,39.765625,28.890625,18.10227272727272,21.98863636363637,24.59375,18.515625
69,23.0,0.0,0.3439166394184431,-15.00390625,-15.9296875,-11.1328125,-17.500000000000014,-11.93359375,-16.875,-8.3359375,-3.90625,-11.9765625,1.40625,-23.9375,-36.28125,-32.5,-27.71875,-33.53125,-42.21875,-46.5625,-20.25,-14.40625,-15.859375,-21.306818181818187,-21.328125,-30.453125,-21.21875,-26.640625,-44.125,-29.375,-41.421875,-35.640625,-22.96875,-25.625,-31.953125,-35.875,-27.828125,-35.984375,-43.828125,-36.71875,-40.796875,-34.21875,-32.046875,-13.859375,-24.5625,-24.03125,-31.921875,-17.953125,-18.578125,-23.359375,-16.703125,-21.890625,-18.296875,-19.921875,-25.921875,-26.403409090909065,-20.421875,-17.234375,-26.875,-20.25,-23.40625,-17.921875,-12.390625
70,23.0,1.0,0.3682950713172779,26.087515782828284,21.77541035353535,22.58664772727273,24.047664141414124,21.47885101010101,22.14962121212121,18.013731060606077,17.16540404040404,19.929924242424242,12.312973484848492,7.68402777777779,-0.867424242424243,-3.5795454545454515,-4.00284090909091,3.287878787878785,3.196022727272729,0.9071969696969719,2.199810606060604,3.2916666666666665,0.9659090909090904,-0.461174242424243,0.9564393939393957,-4.569128787878785,-2.5596590909090904,0.7320075757575764,1.1032196969696946,3.0331439393939377,-5.304924242424243,-6.395833333333333,-4.368371212121215,-3.2670454545454515,-2.141098484848486,-3.554924242424243,-6.310606060606062,-4.035037878787882,-9.946969696969695,-11.061553030303028,-7.364583333333333,-7.712121212121215,-4.189393939393938,-2.1306818181818192,-4.878787878787882,-7.532196969696972,-9.196022727272728,-5.887310606060605,-5.8267045454545485,-5.827651515151514,-3.5719696969696946,-7.4375,-3.1856060606060623,-5.591856060606062,-3.7045454545454515,-6.5482954545454515,-2.544507575757576,-1.8390151515151527,0.1676136363636355,3.005681818181819,2.9270833333333335,1.4242424242424236,3.9166666666666665
71,23.0,2.0,0.2877882892642792,41.51302083333333,37.19791666666667,35.34375,42.223958333333314,41.31640625,60.875,51.690104166666686,53.34375,48.28125,26.55113636363637,37.361979166666686,25.568181818181813,13.625,18.96875,33.375,29.109375,28.4375,41.07954545454544,37.875,11.203125,27.921875,41.921875,24.9375,11.59375,30.359375,24.125,36.890625,29.109375,18.921875,16.59375,25.6875,40.3125,28.25,20.26704545454544,33.203125,14.539772727272748,19.039772727272748,26.0625,15.340909090909063,29.79545454545456,17.761363636363626,15.528409090909063,13.960227272727252,16.32954545454544,15.17045454545456,2.421875,7.203125,23.234375,15.046875,5.890625,30.328125,39.515625,19.96875,39.765625,28.890625,18.10227272727272,21.98863636363637,24.59375,18.515625,32.234375
72,24.0,0.0,0.2513203546512127,-13.604166666666655,-8.09375,-8.484375,-3.984375000000014,-9.0,-5.859375,-1.81640625,-6.5,2.765625,-21.6875,-26.5234375,-32.5,-27.71875,-33.53125,-42.21875,-46.5625,-20.25,-14.40625,-15.859375,-21.306818181818187,-21.328125,-30.453125,-21.21875,-26.640625,-44.125,-29.375,-41.421875,-35.640625,-22.96875,-25.625,-31.953125,-35.875,-27.828125,-35.984375,-43.828125,-36.71875,-40.796875,-34.21875,-32.046875,-13.859375,-24.5625,-24.03125,-31.921875,-17.953125,-18.578125,-23.359375,-16.703125,-21.890625,-18.296875,-19.921875,-25.921875,-26.403409090909065,-20.421875,-17.234375,-26.875,-20.25,-23.40625,-17.921875,-12.390625,-8.21875
73,24.0,1.0,0.4769292880958949,-1.8796559343434274,1.7383207070707083,6.218039772727271,6.071969696969692,9.527462121212134,8.336174242424242,10.288825757575758,16.578914141414156,12.352509469696969,11.819444444444448,6.756944444444445,-3.5795454545454515,-4.00284090909091,3.287878787878785,3.196022727272729,0.9071969696969719,2.199810606060604,3.2916666666666665,0.9659090909090904,-0.461174242424243,0.9564393939393957,-4.569128787878785,-2.5596590909090904,0.7320075757575764,1.1032196969696946,3.0331439393939377,-5.304924242424243,-6.395833333333333,-4.368371212121215,-3.2670454545454515,-2.141098484848486,-3.554924242424243,-6.310606060606062,-4.035037878787882,-9.946969696969695,-11.061553030303028,-7.364583333333333,-7.712121212121215,-4.189393939393938,-2.1306818181818192,-4.878787878787882,-7.532196969696972,-9.196022727272728,-5.887310606060605,-5.8267045454545485,-5.827651515151514,-3.5719696969696946,-7.4375,-3.1856060606060623,-5.591856060606062,-3.7045454545454515,-6.5482954545454515,-2.544507575757576,-1.8390151515151527,0.1676136363636355,3.005681818181819,2.9270833333333335,1.4242424242424236,3.9166666666666665,4.043560606060607
74,24.0,2.0,0.2717503572528923,10.114583333333345,11.78125,23.13671875,16.265625,40.041666666666686,35.171875,40.98828125,40.791666666666686,26.77414772727272,42.13020833333334,35.609375,13.625,18.96875,33.375,29.109375,28.4375,41.07954545454544,37.875,11.203125,27.921875,41.921875,24.9375,11.59375,30.359375,24.125,36.890625,29.109375,18.921875,16.59375,25.6875,40.3125,28.25,20.26704545454544,33.203125,14.539772727272748,19.039772727272748,26.0625,15.340909090909063,29.79545454545456,17.761363636363626,15.528409090909063,13.960227272727252,16.32954545454544,15.17045454545456,2.421875,7.203125,23.234375,15.046875,5.890625,30.328125,39.515625,19.96875,39.765625,28.890625,18.10227272727272,21.98863636363637,24.59375,18.515625,32.234375,27.204545454545467
75,25.0,0.0,0.28488587165239504,-3.0390625,-10.03125,-5.51953125,-8.062500000000014,-6.9140625,-2.6015625,-4.3984375,2.5625,-20.34375,-16.890625,-21.54166666666663,-27.71875,-33.53125,-42.21875,-46.5625,-20.25,-14.40625,-15.859375,-21.306818181818187,-21.328125,-30.453125,-21.21875,-26.640625,-44.125,-29.375,-41.421875,-35.640625,-22.96875,-25.625,-31.953125,-35.875,-27.828125,-35.984375,-43.828125,-36.71875,-40.796875,-34.21875,-32.046875,-13.859375,-24.5625,-24.03125,-31.921875,-17.953125,-18.578125,-23.359375,-16.703125,-21.890625,-18.296875,-19.921875,-25.921875,-26.403409090909065,-20.421875,-17.234375,-26.875,-20.25,-23.40625,-17.921875,-12.390625,-8.21875,-9.65625
76,25.0,1.0,0.4434534829135094,3.898674242424243,8.871054292929285,8.621685606060604,12.335858585858567,11.563131313131318,13.790719696969695,21.080334595959584,17.718434343434357,18.755208333333332,14.655618686868687,5.197916666666698,-4.00284090909091,3.287878787878785,3.196022727272729,0.9071969696969719,2.199810606060604,3.2916666666666665,0.9659090909090904,-0.461174242424243,0.9564393939393957,-4.569128787878785,-2.5596590909090904,0.7320075757575764,1.1032196969696946,3.0331439393939377,-5.304924242424243,-6.395833333333333,-4.368371212121215,-3.2670454545454515,-2.141098484848486,-3.554924242424243,-6.310606060606062,-4.035037878787882,-9.946969696969695,-11.061553030303028,-7.364583333333333,-7.712121212121215,-4.189393939393938,-2.1306818181818192,-4.878787878787882,-7.532196969696972,-9.196022727272728,-5.887310606060605,-5.8267045454545485,-5.827651515151514,-3.5719696969696946,-7.4375,-3.1856060606060623,-5.591856060606062,-3.7045454545454515,-6.5482954545454515,-2.544507575757576,-1.8390151515151527,0.1676136363636355,3.005681818181819,2.9270833333333335,1.4242424242424236,3.9166666666666665,4.043560606060607,3.030303030303031
77,25.0,2.0,0.2716606454340955,9.515625,23.018229166666657,27.85546875,50.958333333333314,45.51302083333334,50.6015625,50.380208333333314,33.40340909090909,51.5859375,45.61931818181819,25.00520833333337,18.96875,33.375,29.109375,28.4375,41.07954545454544,37.875,11.203125,27.921875,41.921875,24.9375,11.59375,30.359375,24.125,36.890625,29.109375,18.921875,16.59375,25.6875,40.3125,28.25,20.26704545454544,33.203125,14.539772727272748,19.039772727272748,26.0625,15.340909090909063,29.79545454545456,17.761363636363626,15.528409090909063,13.960227272727252,16.32954545454544,15.17045454545456,2.421875,7.203125,23.234375,15.046875,5.890625,30.328125,39.515625,19.96875,39.765625,28.890625,18.10227272727272,21.98863636363637,24.59375,18.515625,32.234375,27.204545454545467,16.58522727272728
78,26.0,0.0,0.2975495639995625,-8.78125,-4.5859375,-10.875,-5.218750000000014,-1.01171875,-4.734375,3.984375,-17.75,-8.9296875,-11.552083333333314,-17.17447916666663,-33.53125,-42.21875,-46.5625,-20.25,-14.40625,-15.859375,-21.306818181818187,-21.328125,-30.453125,-21.21875,-26.640625,-44.125,-29.375,-41.421875,-35.640625,-22.96875,-25.625,-31.953125,-35.875,-27.828125,-35.984375,-43.828125,-36.71875,-40.796875,-34.21875,-32.046875,-13.859375,-24.5625,-24.03125,-31.921875,-17.953125,-18.578125,-23.359375,-16.703125,-21.890625,-18.296875,-19.921875,-25.921875,-26.403409090909065,-20.421875,-17.234375,-26.875,-20.25,-23.40625,-17.921875,-12.390625,-8.21875,-9.65625,-20.4375
79,26.0,1.0,0.42529837428999734,5.9928188131313185,6.1679292929292915,10.668560606060604,10.842171717171706,13.87247474747475,22.689393939393938,20.71977588383837,23.85416666666668,21.245265151515152,13.194128787878803,4.414062500000025,3.287878787878785,3.196022727272729,0.9071969696969719,2.199810606060604,3.2916666666666665,0.9659090909090904,-0.461174242424243,0.9564393939393957,-4.569128787878785,-2.5596590909090904,0.7320075757575764,1.1032196969696946,3.0331439393939377,-5.304924242424243,-6.395833333333333,-4.368371212121215,-3.2670454545454515,-2.141098484848486,-3.554924242424243,-6.310606060606062,-4.035037878787882,-9.946969696969695,-11.061553030303028,-7.364583333333333,-7.712121212121215,-4.189393939393938,-2.1306818181818192,-4.878787878787882,-7.532196969696972,-9.196022727272728,-5.887310606060605,-5.8267045454545485,-5.827651515151514,-3.5719696969696946,-7.4375,-3.1856060606060623,-5.591856060606062,-3.7045454545454515,-6.5482954545454515,-2.544507575757576,-1.8390151515151527,0.1676136363636355,3.005681818181819,2.9270833333333335,1.4242424242424236,3.9166666666666665,4.043560606060607,3.030303030303031,-1.053030303030302
80,26.0,2.0,0.2771520617104402,19.587239583333343,24.9765625,49.09375,44.76041666666666,50.80859375,52.25,38.51704545454544,56.416666666666686,54.70738636363637,34.572916666666686,28.40364583333337,33.375,29.109375,28.4375,41.07954545454544,37.875,11.203125,27.921875,41.921875,24.9375,11.59375,30.359375,24.125,36.890625,29.109375,18.921875,16.59375,25.6875,40.3125,28.25,20.26704545454544,33.203125,14.539772727272748,19.039772727272748,26.0625,15.340909090909063,29.79545454545456,17.761363636363626,15.528409090909063,13.960227272727252,16.32954545454544,15.17045454545456,2.421875,7.203125,23.234375,15.046875,5.890625,30.328125,39.515625,19.96875,39.765625,28.890625,18.10227272727272,21.98863636363637,24.59375,18.515625,32.234375,27.204545454545467,16.58522727272728,27.64772727272728
81,27.0,0.0,0.29494687498919314,-7.96484375,-5.364583333333314,0.6328125,1.619318181818187,1.6796875,8.34375,-12.625,-4.75,-6.328125,-6.817708333333314,-23.39322916666663,-42.21875,-46.5625,-20.25,-14.40625,-15.859375,-21.306818181818187,-21.328125,-30.453125,-21.21875,-26.640625,-44.125,-29.375,-41.421875,-35.640625,-22.96875,-25.625,-31.953125,-35.875,-27.828125,-35.984375,-43.828125,-36.71875,-40.796875,-34.21875,-32.046875,-13.859375,-24.5625,-24.03125,-31.921875,-17.953125,-18.578125,-23.359375,-16.703125,-21.890625,-18.296875,-19.921875,-25.921875,-26.403409090909065,-20.421875,-17.234375,-26.875,-20.25,-23.40625,-17.921875,-12.390625,-8.21875,-9.65625,-20.4375,-24.28125
82,27.0,1.0,0.41769410685103847,0.7940340909090904,6.275568181818193,7.589962121212121,11.617424242424237,22.156092171717184,21.773200757575758,27.199652777777764,26.27588383838384,19.825757575757578,11.660827020202033,11.019097222222248,3.196022727272729,0.9071969696969719,2.199810606060604,3.2916666666666665,0.9659090909090904,-0.461174242424243,0.9564393939393957,-4.569128787878785,-2.5596590909090904,0.7320075757575764,1.1032196969696946,3.0331439393939377,-5.304924242424243,-6.395833333333333,-4.368371212121215,-3.2670454545454515,-2.141098484848486,-3.554924242424243,-6.310606060606062,-4.035037878787882,-9.946969696969695,-11.061553030303028,-7.364583333333333,-7.712121212121215,-4.189393939393938,-2.1306818181818192,-4.878787878787882,-7.532196969696972,-9.196022727272728,-5.887310606060605,-5.8267045454545485,-5.827651515151514,-3.5719696969696946,-7.4375,-3.1856060606060623,-5.591856060606062,-3.7045454545454515,-6.5482954545454515,-2.544507575757576,-1.8390151515151527,0.1676136363636355,3.005681818181819,2.9270833333333335,1.4242424242424236,3.9166666666666665,4.043560606060607,3.030303030303031,-1.053030303030302,-6.612689393939393
83,27.0,2.0,0.2873590181597685,8.36328125,33.604166666666686,31.6484375,39.921875,44.291666666666686,40.28693181818181,63.497395833333314,61.35795454545456,44.765625,35.401041666666686,35.71875,29.109375,28.4375,41.07954545454544,37.875,11.203125,27.921875,41.921875,24.9375,11.59375,30.359375,24.125,36.890625,29.109375,18.921875,16.59375,25.6875,40.3125,28.25,20.26704545454544,33.203125,14.539772727272748,19.039772727272748,26.0625,15.340909090909063,29.79545454545456,17.761363636363626,15.528409090909063,13.960227272727252,16.32954545454544,15.17045454545456,2.421875,7.203125,23.234375,15.046875,5.890625,30.328125,39.515625,19.96875,39.765625,28.890625,18.10227272727272,21.98863636363637,24.59375,18.515625,32.234375,27.204545454545467,16.58522727272728,27.64772727272728,7.21875
84,28.0,0.0,0.3242066646094445,-6.875,-1.890625,1.026988636363626,1.0312499999999858,7.234375,-12.0,-4.1015625,0.0833333333333143,1.1953125,-14.880208333333314,-33.294270833333314,-46.5625,-20.25,-14.40625,-15.859375,-21.306818181818187,-21.328125,-30.453125,-21.21875,-26.640625,-44.125,-29.375,-41.421875,-35.640625,-22.96875,-25.625,-31.953125,-35.875,-27.828125,-35.984375,-43.828125,-36.71875,-40.796875,-34.21875,-32.046875,-13.859375,-24.5625,-24.03125,-31.921875,-17.953125,-18.578125,-23.359375,-16.703125,-21.890625,-18.296875,-19.921875,-25.921875,-26.403409090909065,-20.421875,-17.234375,-26.875,-20.25,-23.40625,-17.921875,-12.390625,-8.21875,-9.65625,-20.4375,-24.28125,-27.203125
85,28.0,1.0,0.3846546128588891,5.983270202020208,7.959280303030312,12.504734848484848,24.285984848484834,25.01065340909092,32.25,32.53219696969697,27.203914141414145,19.174952651515152,18.53851010101011,10.605034722222236,0.9071969696969719,2.199810606060604,3.2916666666666665,0.9659090909090904,-0.461174242424243,0.9564393939393957,-4.569128787878785,-2.5596590909090904,0.7320075757575764,1.1032196969696946,3.0331439393939377,-5.304924242424243,-6.395833333333333,-4.368371212121215,-3.2670454545454515,-2.141098484848486,-3.554924242424243,-6.310606060606062,-4.035037878787882,-9.946969696969695,-11.061553030303028,-7.364583333333333,-7.712121212121215,-4.189393939393938,-2.1306818181818192,-4.878787878787882,-7.532196969696972,-9.196022727272728,-5.887310606060605,-5.8267045454545485,-5.827651515151514,-3.5719696969696946,-7.4375,-3.1856060606060623,-5.591856060606062,-3.7045454545454515,-6.5482954545454515,-2.544507575757576,-1.8390151515151527,0.1676136363636355,3.005681818181819,2.9270833333333335,1.4242424242424236,3.9166666666666665,4.043560606060607,3.030303030303031,-1.053030303030302,-6.612689393939393,-5.543560606060607
86,28.0,2.0,0.2911387225316665,27.505208333333343,26.755208333333343,36.08203125,42.208333333333314,43.15056818181819,66.078125,68.35227272727275,51.89583333333334,45.0234375,42.369791666666686,34.190104166666686,28.4375,41.07954545454544,37.875,11.203125,27.921875,41.921875,24.9375,11.59375,30.359375,24.125,36.890625,29.109375,18.921875,16.59375,25.6875,40.3125,28.25,20.26704545454544,33.203125,14.539772727272748,19.039772727272748,26.0625,15.340909090909063,29.79545454545456,17.761363636363626,15.528409090909063,13.960227272727252,16.32954545454544,15.17045454545456,2.421875,7.203125,23.234375,15.046875,5.890625,30.328125,39.515625,19.96875,39.765625,28.890625,18.10227272727272,21.98863636363637,24.59375,18.515625,32.234375,27.204545454545467,16.58522727272728,27.64772727272728,7.21875,4.671875
87,29.0,0.0,0.3414773638563595,-4.448863636363626,-1.5965909090909065,7.7109375,9.999999999999986,-8.0625,-0.703125,-3.0989583333333144,6.53125,-7.7578125,-25.83854166666669,-38.65104166666663,-20.25,-14.40625,-15.859375,-21.306818181818187,-21.328125,-30.453125,-21.21875,-26.640625,-44.125,-29.375,-41.421875,-35.640625,-22.96875,-25.625,-31.953125,-35.875,-27.828125,-35.984375,-43.828125,-36.71875,-40.796875,-34.21875,-32.046875,-13.859375,-24.5625,-24.03125,-31.921875,-17.953125,-18.578125,-23.359375,-16.703125,-21.890625,-18.296875,-19.921875,-25.921875,-26.403409090909065,-20.421875,-17.234375,-26.875,-20.25,-23.40625,-17.921875,-12.390625,-8.21875,-9.65625,-20.4375,-24.28125,-27.203125,-18.890625
88,29.0,1.0,0.37892457791697043,3.0942234848484795,8.614267676767676,22.09469696969697,24.38352272727271,33.89236111111112,35.83712121212121,32.087279040404056,24.65088383838383,24.476325757575758,16.88904671717171,7.409722222222253,2.199810606060604,3.2916666666666665,0.9659090909090904,-0.461174242424243,0.9564393939393957,-4.569128787878785,-2.5596590909090904,0.7320075757575764,1.1032196969696946,3.0331439393939377,-5.304924242424243,-6.395833333333333,-4.368371212121215,-3.2670454545454515,-2.141098484848486,-3.554924242424243,-6.310606060606062,-4.035037878787882,-9.946969696969695,-11.061553030303028,-7.364583333333333,-7.712121212121215,-4.189393939393938,-2.1306818181818192,-4.878787878787882,-7.532196969696972,-9.196022727272728,-5.887310606060605,-5.8267045454545485,-5.827651515151514,-3.5719696969696946,-7.4375,-3.1856060606060623,-5.591856060606062,-3.7045454545454515,-6.5482954545454515,-2.544507575757576,-1.8390151515151527,0.1676136363636355,3.005681818181819,2.9270833333333335,1.4242424242424236,3.9166666666666665,4.043560606060607,3.030303030303031,-1.053030303030302,-6.612689393939393,-5.543560606060607,-3.5416666666666665
89,29.0,2.0,0.27959805822666994,9.643229166666655,15.3359375,43.9921875,44.23295454545453,67.58072916666669,73.8153409090909,58.75426136363637,51.270833333333314,48.9609375,40.942708333333314,35.52083333333337,41.07954545454544,37.875,11.203125,27.921875,41.921875,24.9375,11.59375,30.359375,24.125,36.890625,29.109375,18.921875,16.59375,25.6875,40.3125,28.25,20.26704545454544,33.203125,14.539772727272748,19.039772727272748,26.0625,15.340909090909063,29.79545454545456,17.761363636363626,15.528409090909063,13.960227272727252,16.32954545454544,15.17045454545456,2.421875,7.203125,23.234375,15.046875,5.890625,30.328125,39.515625,19.96875,39.765625,28.890625,18.10227272727272,21.98863636363637,24.59375,18.515625,32.234375,27.204545454545467,16.58522727272728,27.64772727272728,7.21875,4.671875,10.171875
90,30.0,0.0,0.37397465775312694,2.76171875,1.109375,9.75,-6.750000000000014,0.4609375,2.6875,4.44921875,-5.125,-17.6484375,-30.739583333333314,-18.3125,-14.40625,-15.859375,-21.306818181818187,-21.328125,-30.453125,-21.21875,-26.640625,-44.125,-29.375,-41.421875,-35.640625,-22.96875,-25.625,-31.953125,-35.875,-27.828125,-35.984375,-43.828125,-36.71875,-40.796875,-34.21875,-32.046875,-13.859375,-24.5625,-24.03125,-31.921875,-17.953125,-18.578125,-23.359375,-16.703125,-21.890625,-18.296875,-19.921875,-25.921875,-26.403409090909065,-20.421875,-17.234375,-26.875,-20.25,-23.40625,-17.921875,-12.390625,-8.21875,-9.65625,-20.4375,-24.28125,-27.203125,-18.890625,-23.484375
91,30.0,1.0,0.36526466698889676,6.253314393939395,21.191603535353547,24.803267045454547,36.340277777777764,39.70628156565657,37.29356060606061,30.20841224747476,30.254419191919183,22.772017045454547,13.269886363636381,8.716145833333359,3.2916666666666665,0.9659090909090904,-0.461174242424243,0.9564393939393957,-4.569128787878785,-2.5596590909090904,0.7320075757575764,1.1032196969696946,3.0331439393939377,-5.304924242424243,-6.395833333333333,-4.368371212121215,-3.2670454545454515,-2.141098484848486,-3.554924242424243,-6.310606060606062,-4.035037878787882,-9.946969696969695,-11.061553030303028,-7.364583333333333,-7.712121212121215,-4.189393939393938,-2.1306818181818192,-4.878787878787882,-7.532196969696972,-9.196022727272728,-5.887310606060605,-5.8267045454545485,-5.827651515151514,-3.5719696969696946,-7.4375,-3.1856060606060623,-5.591856060606062,-3.7045454545454515,-6.5482954545454515,-2.544507575757576,-1.8390151515151527,0.1676136363636355,3.005681818181819,2.9270833333333335,1.4242424242424236,3.9166666666666665,4.043560606060607,3.030303030303031,-1.053030303030302,-6.612689393939393,-5.543560606060607,-3.5416666666666665,-4.700757575757576
92,30.0,2.0,0.26076067525797625,12.55859375,44.234375,51.17471590909091,73.48958333333331,83.6065340909091,69.48579545454547,59.02414772727275,56.270833333333314,47.8359375,42.291666666666686,50.21875,37.875,11.203125,27.921875,41.921875,24.9375,11.59375,30.359375,24.125,36.890625,29.109375,18.921875,16.59375,25.6875,40.3125,28.25,20.26704545454544,33.203125,14.539772727272748,19.039772727272748,26.0625,15.340909090909063,29.79545454545456,17.761363636363626,15.528409090909063,13.960227272727252,16.32954545454544,15.17045454545456,2.421875,7.203125,23.234375,15.046875,5.890625,30.328125,39.515625,19.96875,39.765625,28.890625,18.10227272727272,21.98863636363637,24.59375,18.515625,32.234375,27.204545454545467,16.58522727272728,27.64772727272728,7.21875,4.671875,10.171875,7.828125
93,31.0,0.0,0.4013012942467172,-1.0859375,6.5625,-8.109375,-0.7812500000000142,2.0989583333333712,3.9609375,-4.71875,-13.833333333333314,-26.109375,-17.03125,-7.908854166666629,-15.859375,-21.306818181818187,-21.328125,-30.453125,-21.21875,-26.640625,-44.125,-29.375,-41.421875,-35.640625,-22.96875,-25.625,-31.953125,-35.875,-27.828125,-35.984375,-43.828125,-36.71875,-40.796875,-34.21875,-32.046875,-13.859375,-24.5625,-24.03125,-31.921875,-17.953125,-18.578125,-23.359375,-16.703125,-21.890625,-18.296875,-19.921875,-25.921875,-26.403409090909065,-20.421875,-17.234375,-26.875,-20.25,-23.40625,-17.921875,-12.390625,-8.21875,-9.65625,-20.4375,-24.28125,-27.203125,-18.890625,-23.484375,-19.90625
94,31.0,1.0,0.35426967114330404,16.66698232323233,21.87231691919193,35.708333333333336,40.76641414141412,39.96164772727272,33.49857954545454,34.03598484848486,26.92929292929294,17.675189393939394,14.048453282828298,9.345486111111136,0.9659090909090904,-0.461174242424243,0.9564393939393957,-4.569128787878785,-2.5596590909090904,0.7320075757575764,1.1032196969696946,3.0331439393939377,-5.304924242424243,-6.395833333333333,-4.368371212121215,-3.2670454545454515,-2.141098484848486,-3.554924242424243,-6.310606060606062,-4.035037878787882,-9.946969696969695,-11.061553030303028,-7.364583333333333,-7.712121212121215,-4.189393939393938,-2.1306818181818192,-4.878787878787882,-7.532196969696972,-9.196022727272728,-5.887310606060605,-5.8267045454545485,-5.827651515151514,-3.5719696969696946,-7.4375,-3.1856060606060623,-5.591856060606062,-3.7045454545454515,-6.5482954545454515,-2.544507575757576,-1.8390151515151527,0.1676136363636355,3.005681818181819,2.9270833333333335,1.4242424242424236,3.9166666666666665,4.043560606060607,3.030303030303031,-1.053030303030302,-6.612689393939393,-5.543560606060607,-3.5416666666666665,-4.700757575757576,-5.75284090909091
95,31.0,2.0,0.2444290346099788,41.2734375,51.58522727272728,73.171875,88.27272727272725,75.79545454545456,65.8465909090909,63.033854166666686,53.416666666666686,48.0,58.45170454545456,46.28125,11.203125,27.921875,41.921875,24.9375,11.59375,30.359375,24.125,36.890625,29.109375,18.921875,16.59375,25.6875,40.3125,28.25,20.26704545454544,33.203125,14.539772727272748,19.039772727272748,26.0625,15.340909090909063,29.79545454545456,17.761363636363626,15.528409090909063,13.960227272727252,16.32954545454544,15.17045454545456,2.421875,7.203125,23.234375,15.046875,5.890625,30.328125,39.515625,19.96875,39.765625,28.890625,18.10227272727272,21.98863636363637,24.59375,18.515625,32.234375,27.204545454545467,16.58522727272728,27.64772727272728,7.21875,4.671875,10.171875,7.828125,10.265625
96,32.0,0.0,0.41475840596057806,-31.8125,-41.53125,-30.9609375,-23.96875,-11.62109375,-3.0,-12.127604166666686,-23.60416666666669,-15.421875,-5.598958333333314,-10.428385416666629,-21.306818181818187,-21.328125,-30.453125,-21.21875,-26.640625,-44.125,-29.375,-41.421875,-35.640625,-22.96875,-25.625,-31.953125,-35.875,-27.828125,-35.984375,-43.828125,-36.71875,-40.796875,-34.21875,-32.046875,-13.859375,-24.5625,-24.03125,-31.921875,-17.953125,-18.578125,-23.359375,-16.703125,-21.890625,-18.296875,-19.921875,-25.921875,-26.403409090909065,-20.421875,-17.234375,-26.875,-20.25,-23.40625,-17.921875,-12.390625,-8.21875,-9.65625,-20.4375,-24.28125,-27.203125,-18.890625,-23.484375,-19.90625,-22.921875
97,32.0,1.0,0.3508504902181945,7.712200126262632,24.76041666666668,32.42376893939394,34.14015151515149,29.212357954545453,31.154356060606055,25.3365688131313,17.243686868686854,15.457149621212118,12.388888888888902,5.197916666666692,-0.461174242424243,0.9564393939393957,-4.569128787878785,-2.5596590909090904,0.7320075757575764,1.1032196969696946,3.0331439393939377,-5.304924242424243,-6.395833333333333,-4.368371212121215,-3.2670454545454515,-2.141098484848486,-3.554924242424243,-6.310606060606062,-4.035037878787882,-9.946969696969695,-11.061553030303028,-7.364583333333333,-7.712121212121215,-4.189393939393938,-2.1306818181818192,-4.878787878787882,-7.532196969696972,-9.196022727272728,-5.887310606060605,-5.8267045454545485,-5.827651515151514,-3.5719696969696946,-7.4375,-3.1856060606060623,-5.591856060606062,-3.7045454545454515,-6.5482954545454515,-2.544507575757576,-1.8390151515151527,0.1676136363636355,3.005681818181819,2.9270833333333335,1.4242424242424236,3.9166666666666665,4.043560606060607,3.030303030303031,-1.053030303030302,-6.612689393939393,-5.543560606060607,-3.5416666666666665,-4.700757575757576,-5.75284090909091,-6.054924242424243
98,32.0,2.0,0.2343911038212274,22.938802083333343,63.588541666666686,65.2265625,66.91666666666663,63.309895833333314,65.546875,53.841145833333314,49.020833333333314,56.637784090909065,47.6875,16.97786458333337,27.921875,41.921875,24.9375,11.59375,30.359375,24.125,36.890625,29.109375,18.921875,16.59375,25.6875,40.3125,28.25,20.26704545454544,33.203125,14.539772727272748,19.039772727272748,26.0625,15.340909090909063,29.79545454545456,17.761363636363626,15.528409090909063,13.960227272727252,16.32954545454544,15.17045454545456,2.421875,7.203125,23.234375,15.046875,5.890625,30.328125,39.515625,19.96875,39.765625,28.890625,18.10227272727272,21.98863636363637,24.59375,18.515625,32.234375,27.204545454545467,16.58522727272728,27.64772727272728,7.21875,4.671875,10.171875,7.828125,10.265625,10.640625
99,33.0,0.0,0.3813454397216489,-11.203125,-3.828125,-0.0703125,-0.359375,-7.078125,-15.109375,-25.364583333333314,-17.125,-1.5234375,-8.7265625,-17.90625,-21.328125,-30.453125,-21.21875,-26.640625,-44.125,-29.375,-41.421875,-35.640625,-22.96875,-25.625,-31.953125,-35.875,-27.828125,-35.984375,-43.828125,-36.71875,-40.796875,-34.21875,-32.046875,-13.859375,-24.5625,-24.03125,-31.921875,-17.953125,-18.578125,-23.359375,-16.703125,-21.890625,-18.296875,-19.921875,-25.921875,-26.403409090909065,-20.421875,-17.234375,-26.875,-20.25,-23.40625,-17.921875,-12.390625,-8.21875,-9.65625,-20.4375,-24.28125,-27.203125,-18.890625,-23.484375,-19.90625,-22.921875,-32.359375
100,33.0,1.0,0.36674741634950286,19.47222222222223,28.952651515151516,32.40198863636364,28.221275252525224,30.779671717171734,25.462594696969695,17.742739898989914,17.00820707070706,14.786458333333334,7.995896464646478,3.2734375000000253,0.9564393939393957,-4.569128787878785,-2.5596590909090904,0.7320075757575764,1.1032196969696946,3.0331439393939377,-5.304924242424243,-6.395833333333333,-4.368371212121215,-3.2670454545454515,-2.141098484848486,-3.554924242424243,-6.310606060606062,-4.035037878787882,-9.946969696969695,-11.061553030303028,-7.364583333333333,-7.712121212121215,-4.189393939393938,-2.1306818181818192,-4.878787878787882,-7.532196969696972,-9.196022727272728,-5.887310606060605,-5.8267045454545485,-5.827651515151514,-3.5719696969696946,-7.4375,-3.1856060606060623,-5.591856060606062,-3.7045454545454515,-6.5482954545454515,-2.544507575757576,-1.8390151515151527,0.1676136363636355,3.005681818181819,2.9270833333333335,1.4242424242424236,3.9166666666666665,4.043560606060607,3.030303030303031,-1.053030303030302,-6.612689393939393,-5.543560606060607,-3.5416666666666665,-4.700757575757576,-5.75284090909091,-6.054924242424243,-4.928977272727274
101,33.0,2.0,0.25190714392884817,50.82552083333334,53.578125,60.078125,65.19791666666663,60.38802083333334,56.609375,52.369791666666686,55.636363636363626,47.953125,18.94010416666669,32.93880208333337,41.921875,24.9375,11.59375,30.359375,24.125,36.890625,29.109375,18.921875,16.59375,25.6875,40.3125,28.25,20.26704545454544,33.203125,14.539772727272748,19.039772727272748,26.0625,15.340909090909063,29.79545454545456,17.761363636363626,15.528409090909063,13.960227272727252,16.32954545454544,15.17045454545456,2.421875,7.203125,23.234375,15.046875,5.890625,30.328125,39.515625,19.96875,39.765625,28.890625,18.10227272727272,21.98863636363637,24.59375,18.515625,32.234375,27.204545454545467,16.58522727272728,27.64772727272728,7.21875,4.671875,10.171875,7.828125,10.265625,10.640625,14.140625
102,34.0,0.0,0.3381311206605045,-19.5703125,-29.859375,-33.22265625,-35.6875,-41.544270833333314,-47.65625,-34.78125,-11.604166666666686,-17.84765625,-19.755681818181813,-22.05078125,-30.453125,-21.21875,-26.640625,-44.125,-29.375,-41.421875,-35.640625,-22.96875,-25.625,-31.953125,-35.875,-27.828125,-35.984375,-43.828125,-36.71875,-40.796875,-34.21875,-32.046875,-13.859375,-24.5625,-24.03125,-31.921875,-17.953125,-18.578125,-23.359375,-16.703125,-21.890625,-18.296875,-19.921875,-25.921875,-26.403409090909065,-20.421875,-17.234375,-26.875,-20.25,-23.40625,-17.921875,-12.390625,-8.21875,-9.65625,-20.4375,-24.28125,-27.203125,-18.890625,-23.484375,-19.90625,-22.921875,-32.359375,-17.4375
103,34.0,1.0,0.41627977058625343,12.360006313131313,18.604797979797976,16.23366477272727,20.470959595959567,16.71709280303032,10.432765151515152,11.812736742424256,11.499999999999988,6.172348484848486,3.449021464646478,4.107638888888902,-4.569128787878785,-2.5596590909090904,0.7320075757575764,1.1032196969696946,3.0331439393939377,-5.304924242424243,-6.395833333333333,-4.368371212121215,-3.2670454545454515,-2.141098484848486,-3.554924242424243,-6.310606060606062,-4.035037878787882,-9.946969696969695,-11.061553030303028,-7.364583333333333,-7.712121212121215,-4.189393939393938,-2.1306818181818192,-4.878787878787882,-7.532196969696972,-9.196022727272728,-5.887310606060605,-5.8267045454545485,-5.827651515151514,-3.5719696969696946,-7.4375,-3.1856060606060623,-5.591856060606062,-3.7045454545454515,-6.5482954545454515,-2.544507575757576,-1.8390151515151527,0.1676136363636355,3.005681818181819,2.9270833333333335,1.4242424242424236,3.9166666666666665,4.043560606060607,3.030303030303031,-1.053030303030302,-6.612689393939393,-5.543560606060607,-3.5416666666666665,-4.700757575757576,-5.75284090909091,-6.054924242424243,-4.928977272727274,-1.171401515151514
104,34.0,2.0,0.2455891087532419,38.5703125,43.30208333333334,46.6953125,51.82291666666663,45.92578125,43.75,46.15056818181819,40.8125,21.66796875,34.455729166666686,46.303385416666686,24.9375,11.59375,30.359375,24.125,36.890625,29.109375,18.921875,16.59375,25.6875,40.3125,28.25,20.26704545454544,33.203125,14.539772727272748,19.039772727272748,26.0625,15.340909090909063,29.79545454545456,17.761363636363626,15.528409090909063,13.960227272727252,16.32954545454544,15.17045454545456,2.421875,7.203125,23.234375,15.046875,5.890625,30.328125,39.515625,19.96875,39.765625,28.890625,18.10227272727272,21.98863636363637,24.59375,18.515625,32.234375,27.204545454545467,16.58522727272728,27.64772727272728,7.21875,4.671875,10.171875,7.828125,10.265625,10.640625,14.140625,27.703125
105,35.0,0.0,0.2782406611136884,-12.4921875,-24.93229166666669,-33.8359375,-45.697916666666686,-51.55729166666663,-26.4375,-15.356770833333314,-12.09375,-25.870738636363622,-19.0234375,-25.149739583333314,-21.21875,-26.640625,-44.125,-29.375,-41.421875,-35.640625,-22.96875,-25.625,-31.953125,-35.875,-27.828125,-35.984375,-43.828125,-36.71875,-40.796875,-34.21875,-32.046875,-13.859375,-24.5625,-24.03125,-31.921875,-17.953125,-18.578125,-23.359375,-16.703125,-21.890625,-18.296875,-19.921875,-25.921875,-26.403409090909065,-20.421875,-17.234375,-26.875,-20.25,-23.40625,-17.921875,-12.390625,-8.21875,-9.65625,-20.4375,-24.28125,-27.203125,-18.890625,-23.484375,-19.90625,-22.921875,-32.359375,-17.4375,-22.28125
106,35.0,1.0,0.49385455132401945,8.390940656565668,7.18008207070706,12.446969696969695,9.607007575757557,4.10890151515154,6.954071969696972,7.901041666666673,3.3869949494949387,2.0134943181818197,4.998421717171709,-2.2821180555555367,-2.5596590909090904,0.7320075757575764,1.1032196969696946,3.0331439393939377,-5.304924242424243,-6.395833333333333,-4.368371212121215,-3.2670454545454515,-2.141098484848486,-3.554924242424243,-6.310606060606062,-4.035037878787882,-9.946969696969695,-11.061553030303028,-7.364583333333333,-7.712121212121215,-4.189393939393938,-2.1306818181818192,-4.878787878787882,-7.532196969696972,-9.196022727272728,-5.887310606060605,-5.8267045454545485,-5.827651515151514,-3.5719696969696946,-7.4375,-3.1856060606060623,-5.591856060606062,-3.7045454545454515,-6.5482954545454515,-2.544507575757576,-1.8390151515151527,0.1676136363636355,3.005681818181819,2.9270833333333335,1.4242424242424236,3.9166666666666665,4.043560606060607,3.030303030303031,-1.053030303030302,-6.612689393939393,-5.543560606060607,-3.5416666666666665,-4.700757575757576,-5.75284090909091,-6.054924242424243,-4.928977272727274,-1.171401515151514,-3.2604166666666665
107,35.0,2.0,0.2279047875622922,45.41666666666666,35.192708333333314,44.765625,42.953125,45.88020833333337,33.38352272727275,39.846354166666686,24.364583333333314,27.45703125,43.841145833333314,28.0625,11.59375,30.359375,24.125,36.890625,29.109375,18.921875,16.59375,25.6875,40.3125,28.25,20.26704545454544,33.203125,14.539772727272748,19.039772727272748,26.0625,15.340909090909063,29.79545454545456,17.761363636363626,15.528409090909063,13.960227272727252,16.32954545454544,15.17045454545456,2.421875,7.203125,23.234375,15.046875,5.890625,30.328125,39.515625,19.96875,39.765625,28.890625,18.10227272727272,21.98863636363637,24.59375,18.515625,32.234375,27.204545454545467,16.58522727272728,27.64772727272728,7.21875,4.671875,10.171875,7.828125,10.265625,10.640625,14.140625,27.703125,20.46875
108,36.0,0.0,0.2124473187395908,-39.434895833333314,-47.307291666666686,-58.2265625,-63.02083333333337,-26.11588541666663,-22.765625,-14.641927083333314,-27.82954545454544,-20.68359375,-28.15885416666669,-19.200520833333314,-26.640625,-44.125,-29.375,-41.421875,-35.640625,-22.96875,-25.625,-31.953125,-35.875,-27.828125,-35.984375,-43.828125,-36.71875,-40.796875,-34.21875,-32.046875,-13.859375,-24.5625,-24.03125,-31.921875,-17.953125,-18.578125,-23.359375,-16.703125,-21.890625,-18.296875,-19.921875,-25.921875,-26.403409090909065,-20.421875,-17.234375,-26.875,-20.25,-23.40625,-17.921875,-12.390625,-8.21875,-9.65625,-20.4375,-24.28125,-27.203125,-18.890625,-23.484375,-19.90625,-22.921875,-32.359375,-17.4375,-22.28125,-27.625
109,36.0,1.0,0.5646408735742718,-0.39086174242423,5.565340909090897,3.2990056818181808,-1.7531565656565944,2.216934974747497,4.083333333333333,0.04261363636363234,-0.32133838383839475,4.649621212121215,-1.5749684343434442,-0.5651041666666541,0.7320075757575764,1.1032196969696946,3.0331439393939377,-5.304924242424243,-6.395833333333333,-4.368371212121215,-3.2670454545454515,-2.141098484848486,-3.554924242424243,-6.310606060606062,-4.035037878787882,-9.946969696969695,-11.061553030303028,-7.364583333333333,-7.712121212121215,-4.189393939393938,-2.1306818181818192,-4.878787878787882,-7.532196969696972,-9.196022727272728,-5.887310606060605,-5.8267045454545485,-5.827651515151514,-3.5719696969696946,-7.4375,-3.1856060606060623,-5.591856060606062,-3.7045454545454515,-6.5482954545454515,-2.544507575757576,-1.8390151515151527,0.1676136363636355,3.005681818181819,2.9270833333333335,1.4242424242424236,3.9166666666666665,4.043560606060607,3.030303030303031,-1.053030303030302,-6.612689393939393,-5.543560606060607,-3.5416666666666665,-4.700757575757576,-5.75284090909091,-6.054924242424243,-4.928977272727274,-1.171401515151514,-3.2604166666666665,-3.4005681818181808
110,36.0,2.0,0.2229118076861374,18.08072916666669,42.90625,41.87109375,23.28125,31.33522727272725,27.84375,21.22265625,27.677083333333314,45.08203125,30.5625,14.36328125,30.359375,24.125,36.890625,29.109375,18.921875,16.59375,25.6875,40.3125,28.25,20.26704545454544,33.203125,14.539772727272748,19.039772727272748,26.0625,15.340909090909063,29.79545454545456,17.761363636363626,15.528409090909063,13.960227272727252,16.32954545454544,15.17045454545456,2.421875,7.203125,23.234375,15.046875,5.890625,30.328125,39.515625,19.96875,39.765625,28.890625,18.10227272727272,21.98863636363637,24.59375,18.515625,32.234375,27.204545454545467,16.58522727272728,27.64772727272728,7.21875,4.671875,10.171875,7.828125,10.265625,10.640625,14.140625,27.703125,20.46875,21.6875
111,37.0,0.0,0.250385239242953,-11.559895833333314,-26.255208333333314,-34.703125,-14.625,-26.01822916666663,-11.3046875,-29.22585227272725,-9.78125,-24.48046875,-20.30729166666663,-26.82682291666663,-44.125,-29.375,-41.421875,-35.640625,-22.96875,-25.625,-31.953125,-35.875,-27.828125,-35.984375,-43.828125,-36.71875,-40.796875,-34.21875,-32.046875,-13.859375,-24.5625,-24.03125,-31.921875,-17.953125,-18.578125,-23.359375,-16.703125,-21.890625,-18.296875,-19.921875,-25.921875,-26.403409090909065,-20.421875,-17.234375,-26.875,-20.25,-23.40625,-17.921875,-12.390625,-8.21875,-9.65625,-20.4375,-24.28125,-27.203125,-18.890625,-23.484375,-19.90625,-22.921875,-32.359375,-17.4375,-22.28125,-27.625,-36.34375
112,37.0,1.0,0.5259732018734481,5.850378787878798,3.3625315656565817,-2.038825757575757,2.261047979797948,4.2517361111111365,-0.11079545454545799,-0.2603377525252498,5.901515151515166,-0.062263257575757,1.4398674242424552,2.252604166666692,1.1032196969696946,3.0331439393939377,-5.304924242424243,-6.395833333333333,-4.368371212121215,-3.2670454545454515,-2.141098484848486,-3.554924242424243,-6.310606060606062,-4.035037878787882,-9.946969696969695,-11.061553030303028,-7.364583333333333,-7.712121212121215,-4.189393939393938,-2.1306818181818192,-4.878787878787882,-7.532196969696972,-9.196022727272728,-5.887310606060605,-5.8267045454545485,-5.827651515151514,-3.5719696969696946,-7.4375,-3.1856060606060623,-5.591856060606062,-3.7045454545454515,-6.5482954545454515,-2.544507575757576,-1.8390151515151527,0.1676136363636355,3.005681818181819,2.9270833333333335,1.4242424242424236,3.9166666666666665,4.043560606060607,3.030303030303031,-1.053030303030302,-6.612689393939393,-5.543560606060607,-3.5416666666666665,-4.700757575757576,-5.75284090909091,-6.054924242424243,-4.928977272727274,-1.171401515151514,-3.2604166666666665,-3.4005681818181808,-2.5340909090909096
